#############################################################################
## Copyright (c) 1996, Carnegie Mellon University, Cambridge University,
## Ronald Rosenfeld and Philip Clarkson
## Version 3, Copyright (c) 2006, Carnegie Mellon University 
## Contributors includes Wen Xu, Ananlada Chotimongkol, 
## David Huggins-Daines, Arthur Chan and Alan Black 
#############################################################################
=============================================================================
===============  This file was produced by the CMU-Cambridge  ===============
===============     Statistical Language Modeling Toolkit     ===============
=============================================================================
This is a 3-gram language model, based on a vocabulary of 899 words,
  which begins "</s>", "<s>", "a"...
This is an OPEN-vocabulary model (type 1)
  (OOVs were mapped to UNK, which is treated as any other vocabulary word)
Good-Turing discounting was applied.
1-gram frequency of frequency : 314 
2-gram frequency of frequency : 2089 464 853 280 136 181 93 
3-gram frequency of frequency : 5553 1109 1975 510 255 371 183 
1-gram discounting ratios : 1.00 
2-gram discounting ratios : 0.00 
3-gram discounting ratios : 0.00 
This file is in the ARPA-standard format introduced by Doug Paul.

p(wd3|wd1,wd2)= if(trigram exists)           p_3(wd1,wd2,wd3)
                else if(bigram w1,w2 exists) bo_wt_2(w1,w2)*p(wd3|wd2)
                else                         p(wd3|w2)

p(wd2|wd1)= if(bigram exists) p_2(wd1,wd2)
            else              bo_wt_1(wd1)*p_1(wd2)

All probs and back-off weights (bo_wt) are given in log10 form.

Data formats:

Beginning of data mark: \data\
ngram 1=nr            # number of 1-grams
ngram 2=nr            # number of 2-grams
ngram 3=nr            # number of 3-grams

\1-grams:
p_1     wd_1 bo_wt_1
\2-grams:
p_2     wd_1 wd_2 bo_wt_2
\3-grams:
p_3     wd_1 wd_2 wd_3 

end of data mark: \end\

\data\
ngram 1=900
ngram 2=5060
ngram 3=11312

\1-grams:
-4.9427 <UNK>	0.0000
-0.8550 </s>	-4.0211
-0.8549 <s>	-1.2350
-1.9673 a	-1.3290
-4.9427 able	0.0292
-4.1632 about	-0.2363
-4.9427 above	0.0653
-4.9427 absolutely	0.0001
-4.9427 abut	0.0059
-4.4642 access	-0.5729
-4.9427 accommodation	0.0653
-4.4642 accomplish	-0.6870
-4.6403 acquire	0.0206
-4.3393 action	-0.7128
-4.2423 address	-0.7108
-4.9427 affirmative	0.0653
-4.9427 again	0.0653
-4.9427 ah	0.0653
-4.9427 ahead	0.0653
-4.9427 aid	0.0000
-4.0962 aircraft	-0.8889
-3.8274 all	-0.5571
-4.9427 along	0.0120
-4.6403 also	-0.4721
-3.1854 am	-0.8344
-4.9427 amazon	0.0653
-3.1931 an	-1.0705
-2.0611 and	-1.4891
-4.9427 another	0.0653
-4.2423 answer	-0.4645
-3.9871 any	-1.0399
-4.9427 anyone	0.0028
-3.5263 anything	-1.0221
-4.4642 anywhere	-0.6990
-4.4642 appears	-0.6698
-4.9427 apple	0.0653
-3.7652 appointment	-1.2126
-4.4642 appointments	-0.6336
-3.2601 are	-0.6861
-4.9427 area	0.0007
-4.6403 aren't	0.0107
-4.1632 arrange	-0.8328
-4.9427 arrive	0.0653
-4.9427 arse	0.0292
-3.7652 as	-0.1439
-3.5099 ask	-1.4527
-4.3393 asked	-0.6927
-3.5611 asking	-0.6990
-4.4642 ass	-0.6952
-4.9427 asshole	0.0653
-4.9427 assigned	0.0653
-4.9427 assignment	0.0001
-3.1560 assist	-1.0537
-3.7109 assistance	-1.1484
-4.4642 assuming	-0.6930
-3.0721 at	-1.3839
-4.6403 attain	-0.5937
-4.3393 attend	-0.2958
-4.9427 austin	0.0292
-3.2009 available	-1.3582
-4.4642 awake	-0.6336
-4.3393 away	-0.6980
-3.2009 b	-0.9783
-4.6403 back	0.0994
-1.8014 ballard	-1.5988
-3.8999 ballard's	-0.2530
-4.9427 banking	0.0653
-4.9427 barrel	0.0653
-3.4789 basket	-1.3919
-4.9427 bathroom	0.0653
-4.9427 bay	0.0001
-3.9871 be	-0.2165
-3.8621 because	-1.0738
-4.2423 before	-0.4646
-4.9427 behold	0.0120
-4.9427 being	0.0002
-4.0962 below	-1.0277
-4.3393 beside	-0.7662
-4.9427 besides	0.0001
-4.6403 best	-0.5367
-4.0962 better	-0.8889
-4.9427 between	0.0120
-3.5611 beverage	-1.3430
-4.9427 beverages	0.0653
-4.9427 big	0.0001
-2.7595 bin	-1.2751
-3.7952 binder	-1.1310
-4.9427 bing	0.0022
-4.9427 bit	0.0000
-4.9427 block	0.0653
-4.9427 bloody	0.0000
-2.8921 blue	-0.8523
-2.9636 bob	-1.1523
-4.9427 bobs	0.0039
-3.2253 book	-1.6392
-4.3393 books	-0.7128
-4.3393 bottle	-0.7770
-4.3393 box	0.0655
-4.6403 boxes	-0.5367
-4.9427 brand	0.0000
-3.4642 bread	-1.4264
-4.9427 break	0.0055
-4.4642 brig	0.0333
-1.9370 bring	-1.5169
-4.9427 bringing	0.0010
-4.3393 brink	-0.6900
-4.9427 broken	0.0653
-4.4642 brought	-0.6698
-4.4642 browns	-0.6935
-4.0962 building	-0.8374
-4.9427 built	0.0047
-2.7799 burger	-2.0566
-4.6403 business	0.0653
-3.8274 but	-0.8723
-3.5611 butter	-1.4090
-3.9413 buy	-0.7267
-3.8999 by	-0.1190
-3.5796 c	-0.6108
-4.1632 cafeteria	-0.7754
-4.6403 cake	-0.5367
-2.6513 calendar	-1.8834
-3.5099 call	-0.6496
-4.9427 called	0.0059
-4.0382 calling	-0.2403
-4.4642 calls	-0.6930
-2.3068 can	-1.9026
-4.9427 canada	0.0003
-4.9427 cancel	0.0653
-4.4642 cannot	0.0668
-4.0962 cant	-0.6519
-4.3393 car	-0.6323
-3.7109 cardboard	-0.8772
-4.9427 carefully	0.0097
-3.7372 carry	-1.2562
-4.9427 cart	0.0653
-4.4642 casually	-0.6336
-4.4642 cat	0.0333
-2.8110 cell	-2.1322
-3.2009 cellphone	-1.6516
-4.1632 cellular	-0.9017
-4.9427 centers	0.0000
-4.9427 changed	0.0002
-4.1632 check	-0.9028
-3.4789 cheeseburger	-1.3919
-4.4642 chips	-0.5323
-4.3393 choose	-0.6844
-4.9427 chose	0.0120
-4.4642 city	-0.6990
-3.9413 clean	-0.4428
-4.4642 clear	-0.5900
-4.9427 clearly	0.0000
-4.4642 clerk	-0.6982
-4.0962 climb	-0.8905
-4.9427 close	0.0001
-4.9427 closing	0.0653
-4.9427 clothes	0.0653
-4.9427 coca	0.0000
-4.9427 cock	0.0653
-4.3393 code	-0.6311
-2.0750 coffee	-2.0404
-3.8621 coke	-0.7135
-4.9427 cola	0.0653
-4.4642 collect	-0.6870
-3.8274 color	-0.6567
-4.9427 colored	0.0009
-4.9427 column	0.0064
-3.5796 come	-1.3310
-4.2423 command	-0.8307
-4.2423 commands	-0.7114
-4.0382 complete	-0.5851
-4.9427 completing	0.0002
-4.9427 comprehend	0.0653
-3.5263 conference	-1.0329
-4.9427 contact	0.0010
-3.5263 container	-1.3694
-4.9427 contents	0.0012
-4.4642 converse	-0.6983
-4.9427 cookies	0.0653
-4.9427 cool	0.0001
-4.3393 cop	-0.7770
-4.0382 correct	-0.9347
-4.9427 corridor	0.0653
-3.3731 could	-1.5622
-4.4642 course	0.0073
-4.6403 crap	0.0733
-4.9427 crazy	0.0653
-4.9427 created	0.0021
-4.9427 credited	0.0000
-4.9427 cross	0.0120
-2.6603 cup	-2.1767
-4.9427 current	0.0001
-4.6403 currently	-0.5961
-4.9427 cut	0.0002
-4.4642 d	0.0677
-4.9427 damn	0.0010
-1.6091 dana	-1.8446
-3.0548 dana's	-1.1710
-3.6626 date	-1.3198
-4.9427 dated	0.0111
-4.3393 day	-0.7771
-4.9427 define	0.0059
-2.8444 deliver	-1.3208
-4.3393 delivered	-0.5665
-4.4642 demise	-0.6986
-4.4642 department	-0.6990
-4.9427 desert	0.0000
-4.9427 design	0.0003
-4.9427 designed	0.0002
-3.7372 desk	-1.2543
-4.9427 desktop	0.0010
-4.3393 destination	-0.6935
-4.4642 destinations	-0.6989
-4.9427 destruct	0.0653
-4.4642 device	-0.6336
-4.9427 dialogue	0.0000
-3.1489 diary	-1.1278
-4.3393 didn't	-0.6987
-4.4642 die	-0.5354
-4.4642 differently	0.0333
-4.6403 difficult	0.0001
-4.9427 directly	0.0292
-3.1560 director	-0.7535
-4.0382 directory	-0.5830
-4.9427 disasters	0.0653
-4.4642 disgruntled	-0.6990
-4.9427 dishes	0.0653
-4.9427 disney	0.0000
-4.1632 dispose	-0.9526
-4.4642 distribute	-0.6989
-2.8694 do	-0.7973
-3.5989 doctor	-1.3372
-4.6403 does	-0.5367
-4.9427 doesn't	0.0000
-4.0382 doing	-0.9751
-3.6860 don't	-0.8356
-4.4642 done	-0.6336
-3.6626 door	-0.6016
-4.9427 doritos	0.0038
-4.9427 dot	0.0032
-3.5434 down	-0.8146
-4.9427 downstairs	0.0653
-2.3371 dr	-2.0727
-2.6718 drink	-1.3066
-4.6403 drinking	0.0004
-3.8999 drinks	-1.0145
-4.9427 driving	0.0005
-4.4642 dropped	-0.6968
-4.4642 drowsiness	-0.6336
-3.6860 drowsy	-1.2931
-4.9427 duh	0.0653
-4.6403 dumb	-0.5367
-4.6403 dumpster	-0.5367
-4.0382 dust	-0.8880
-3.3615 dustbin	-1.1779
-4.9427 dustbins	0.0653
-4.4642 dysfunctional	-0.6990
-3.3731 e	-0.9016
-4.9427 earn	0.0000
-3.3972 eat	-1.1860
-4.6403 eating	-0.5367
-4.9427 education	0.0653
-2.5399 eight	-1.3899
-4.9427 electrical	0.0000
-4.9427 email	0.0653
-4.4642 employee	-0.6989
-3.8999 empty	-0.3648
-4.9427 english	0.0000
-4.6403 enter	0.0061
-4.9427 error	0.0653
-4.6403 es	-0.5367
-2.8844 eve	-0.9644
-4.9427 everywhere	0.0060
-4.9427 eves	0.0055
-4.6403 exactly	-0.5367
-4.9427 exit	0.0653
-4.9427 experimental	0.0000
-4.2423 explain	-0.6809
-3.8274 f	-0.9003
-4.9427 fares	0.0653
-4.9427 fast	0.0001
-3.9871 favor	-0.9324
-4.4642 fed	-0.6983
-4.2423 feed	0.0471
-4.0382 feel	-0.9542
-3.4362 feeling	-1.5616
-4.4642 feelings	-0.6990
-4.0962 fetch	-0.5811
-4.3393 few	-0.7781
-3.6191 file	-1.2669
-4.0962 files	-0.5525
-3.8621 fill	-1.1619
-4.9427 film	0.0017
-4.9427 fin	0.0002
-3.2601 find	-0.8935
-4.9427 fine	0.0653
-4.9427 finish	0.0006
-3.9871 first	-0.3556
-4.9427 firstly	0.0097
-1.8338 five	-2.0839
-4.3393 fix	-0.6867
-4.9427 flamethrower	0.0653
-4.9427 flight	0.0009
-4.9427 flip	0.0014
-3.1420 floor	-1.2766
-4.9427 folder	0.0653
-3.7952 follow	-1.1751
-2.6446 food	-1.6902
-2.6317 for	-1.1140
-4.9427 forget	0.0004
-4.9427 form	0.0120
-4.6403 forward	-0.5367
-2.4403 foster	-2.3741
-4.1632 fosters	-0.9449
-1.6943 four	-1.8253
-3.7952 fourth	-1.1617
-4.9427 free	0.0001
-4.9427 fresh	0.0653
-4.9427 friend	0.0653
-2.6695 from	-1.2617
-3.8621 fuck	-0.4572
-4.9427 fucker	0.0653
-4.3393 fucking	-0.6980
-4.1632 full	-0.9019
-4.9427 furniture	0.0653
-4.0962 further	-0.6020
-4.6403 g	0.0003
-3.0901 garbage	-1.7660
-4.4642 gather	-0.6982
-2.1885 get	-1.2841
-2.0186 give	-1.5989
-3.9413 giving	-0.9930
-3.3972 glass	-1.4977
-1.6553 go	-1.7931
-4.6403 goal	-0.5367
-4.4642 goals	-0.5298
-4.1632 going	-0.8159
-4.4642 goo	-0.5729
-4.3393 good	-0.3326
-4.9427 got	0.0292
-4.4642 goto	-0.4605
-4.9427 gps	0.0000
-3.5989 grab	-0.8986
-2.6317 green	-2.2350
-4.3393 ground	-0.6987
-4.6403 guess	-0.6017
-4.3393 guest	-0.2984
-3.8621 h	-0.6535
-4.4642 had	-0.6990
-4.6403 hal	-0.5367
-3.8621 hall	-1.0407
-3.9413 hallway	-0.6409
-4.3393 ham	-0.6962
-2.8921 hamburger	-1.6201
-4.9427 hammer	0.0004
-3.5434 hand	-0.6270
-4.9427 handheld	0.0000
-4.4642 handle	-0.6870
-3.9871 handover	-1.0667
-4.4642 hands	-0.6952
-4.9427 happened	0.0059
-3.7652 has	-1.1955
-4.9427 hath	0.0000
-3.0780 have	-0.9618
-4.9427 haven't	0.0000
-3.0437 he	-1.2359
-4.6403 head	0.0661
-4.4642 health	-0.6990
-4.4642 heard	-0.6870
-4.4642 hell	-0.6336
-3.8621 hello	-0.7603
-2.5593 help	-1.3730
-2.6338 her	-1.4682
-4.0962 here	-0.7722
-4.9427 hey	0.0097
-3.8274 hi	-1.1369
-4.9427 hide	0.0022
-4.9427 high	0.0000
-4.9427 hill	0.0000
-2.8844 him	-1.1857
-2.9728 his	-1.9865
-4.9427 hit	0.0653
-4.9427 hmm	0.0653
-4.2423 holder	-0.7798
-4.9427 holy	0.0000
-4.6403 home	-0.5367
-4.9427 hopeless	0.0653
-4.9427 household	0.0000
-3.5434 how	-0.7782
-4.9427 huh	0.0653
-4.4642 hung	-0.6983
-3.1560 hungry	-1.7328
-2.3536 i	-1.2902
-3.6860 i'm	-0.8445
-4.4642 id	-0.6987
-4.9427 identified	0.0001
-4.9427 idiot	0.0001
-3.6403 if	-0.7191
-4.9427 ignore	0.0022
-4.9427 iii	0.0003
-4.4642 immediately	-0.6698
-1.8632 in	-1.7518
-4.6403 information	0.0292
-4.9427 injured	0.0060
-4.2423 inside	-0.7659
-4.9427 instead	0.0653
-4.9427 instruct	0.0059
-4.2423 instructed	-0.7798
-4.3393 instructing	-0.7722
-3.9413 instructions	-1.0128
-4.9427 intelligent	0.0008
-3.5263 intern	-0.8697
-4.0962 into	-0.2605
-4.9427 inventory	0.0653
-4.9427 involve	0.0060
-2.3985 is	-1.1272
-4.9427 isn't	0.0021
-4.9427 issued	0.0059
-2.3028 it	-1.4231
-1.7196 item	-2.2239
-3.3181 items	-1.2512
-4.4642 its	0.0112
-4.9427 java	0.0653
-3.7952 jelly	-1.1740
-4.9427 job	0.0000
-4.2423 jobs	-0.4023
-4.3393 juice	-0.5026
-4.9427 jump	0.0000
-4.9427 june	0.0053
-3.2337 just	-0.7467
-4.9427 k	0.0000
-4.0962 keep	-0.2654
-3.9413 kept	-1.0416
-4.0382 kitchen	-0.9760
-4.3393 knock	-0.7778
-3.3078 know	-0.5195
-3.4642 l	-1.5288
-2.7265 lab	-1.1135
-4.9427 labeled	0.0003
-4.6403 labs	-0.5367
-4.9427 language	0.0006
-4.9427 laptop	0.0653
-4.9427 leave	0.0055
-4.9427 leaving	0.0001
-4.6403 ledger	-0.5367
-4.9427 left	0.0653
-4.6403 let	-0.5961
-4.1632 letter	-0.8739
-4.9427 life	0.0000
-3.2979 like	-1.3153
-4.9427 lines	0.0012
-4.3393 list	-0.6950
-4.9427 listen	0.0292
-4.4642 little	-0.6982
-4.9427 load	0.0084
-4.3393 loaves	-0.7770
-4.6403 locate	0.0132
-4.3393 located	-0.6267
-3.8999 location	-0.9798
-4.4642 longtime	-0.6990
-4.0962 look	-0.9532
-4.9427 lose	0.0022
-4.3393 lost	-0.7128
-4.1632 lunch	-0.8378
-4.4642 lunchroom	-0.6952
-4.2423 m	-0.4767
-4.4642 machine	-0.6336
-4.9427 main	0.0001
-3.3615 make	-0.7683
-4.9427 making	0.0047
-4.9427 many	0.0000
-4.6403 marked	0.0661
-4.9427 marry	0.0653
-4.6403 material	-0.5367
-4.4642 may	-0.5975
-4.9427 md	0.0060
-2.9728 me	-0.6264
-4.9427 mean	0.0653
-4.4642 medical	-0.6989
-4.4642 medium	-0.6980
-3.1351 meet	-1.0617
-3.6403 meeting	-1.2707
-4.9427 mentioned	0.0000
-4.4642 merciful	-0.6990
-4.1632 met	-0.8439
-4.4642 metal	-0.5367
-4.9427 microphones	0.0653
-4.9427 military	0.0008
-4.0382 milk	-0.8993
-4.9427 mind	0.0001
-4.4642 miss	0.0211
-4.4642 mistyped	0.0333
-3.0663 mobile	-1.7651
-4.4642 money	-0.5357
-4.9427 monster	0.0000
-1.8014 mooney	-1.5988
-3.8999 mooney's	-0.2530
-4.3393 more	-0.6989
-4.9427 moron	0.0653
-4.6403 mother	0.0001
-4.4642 motherfucking	0.0333
-3.5611 move	-0.9885
-2.8621 mr	-1.5444
-4.1632 ms	0.0561
-4.9427 much	0.0653
-3.9871 must	-0.9851
-3.3502 my	-0.5175
-3.3285 n	-1.2587
-3.5099 name	-1.1016
-3.9413 navigate	-0.9942
-4.6403 navigating	0.0060
-4.9427 navigation	0.0292
-4.6403 near	0.0130
-4.9427 nearest	0.0000
-4.4642 necessary	-0.6990
-2.5834 need	-0.8527
-3.9413 needed	-1.0690
-4.9427 needing	0.0292
-2.1947 needs	-1.8576
-4.9427 negative	0.0653
-4.9427 net	0.0000
-4.6403 new	0.0008
-4.4642 next	-0.5729
-4.2423 nine	0.0718
-2.1399 no	-1.1507
-4.9427 nobody	0.0002
-4.9427 none	0.0653
-4.9427 nope	0.0653
-4.9427 normal	0.0003
-3.1854 not	-0.5626
-4.0962 note	-0.8374
-3.7952 notebook	-1.1550
-4.4642 notepad	-0.5729
-3.3731 nothing	-1.5185
-4.9427 nova	0.0000
-3.6191 now	-0.9711
-2.6425 number	-1.9149
-4.9427 nuts	0.0653
-2.9968 o	-1.2796
-4.6403 object	0.0658
-4.9427 objects	0.0001
-4.2423 obtain	-0.2721
-4.4642 occupy	-0.6870
-2.5684 of	-1.3956
-4.9427 off	0.0653
-4.9427 offers	0.0653
-2.0520 office	-1.6340
-4.6403 offices	-0.5367
-4.9427 oh	0.0032
-3.8999 ok	-1.0373
-4.1632 okay	0.1142
-3.1284 on	-0.9031
-4.9427 once	0.0059
-1.8596 one	-1.6997
-4.6403 only	0.0660
-4.3393 open	-0.2828
-4.9427 opening	0.0000
-3.8274 or	-0.5539
-4.4642 order	-0.6336
-4.3393 organizer	-0.6336
-4.6403 original	0.0000
-4.9427 other	0.0000
-4.9427 our	0.0000
-3.3850 out	-0.7956
-3.6191 over	-1.2623
-3.5796 p	-1.3799
-4.4642 pad	-0.5357
-4.9427 page	0.0002
-3.8999 paper	-0.8441
-4.4642 parker	-0.6982
-4.1632 parkers	-0.8992
-4.9427 parkway	0.0653
-4.9427 past	0.0120
-4.4642 pavement	-0.6989
-3.5611 peanut	-1.3978
-4.9427 pen	0.0653
-3.7652 pencil	-1.1482
-4.2423 people	-0.7124
-4.2423 person	-0.2309
-4.3393 personal	-0.6987
-1.6085 peter	-1.8452
-3.0548 peter's	-1.1710
-4.9427 petty	0.0653
-2.7318 phd	-1.4778
-2.5067 phone	-1.6063
-2.8585 pick	-1.3519
-4.9427 pickup	0.0006
-4.9427 pictures	0.0000
-4.6403 piece	-0.4759
-4.9427 pile	0.0012
-4.4642 pillow	-0.6336
-4.4642 pizza	-0.6336
-3.7952 place	-0.6350
-4.9427 placing	0.0003
-4.9427 plan	0.0292
-3.7109 planner	-1.2496
-4.9427 planning	0.0010
-4.3393 plans	-0.7128
-4.9427 plants	0.0653
-4.0382 plastic	-0.9524
-2.0355 please	-1.8393
-4.9427 plot	0.0000
-4.1632 pm	-0.8888
-4.9427 pod	0.0000
-4.9427 point	0.0000
-4.9427 pot	0.0000
-4.9427 power	0.0001
-4.1632 presence	-0.8378
-4.2423 present	-0.4744
-4.9427 press	0.0084
-4.9427 prevent	0.0059
-4.9427 print	0.0002
-4.9427 problem	0.0060
-4.0962 proceed	-0.8159
-4.3393 product	-0.6267
-4.3393 products	-0.7772
-4.9427 profile	0.0653
-4.9427 program	0.0653
-4.6403 project	0.0678
-3.8274 provide	-0.2138
-4.9427 puck	0.0006
-4.9427 purchase	0.0120
-3.4500 put	-1.5020
-3.9871 q	-1.0412
-3.7652 question	-0.2581
-4.9427 quit	0.0653
-3.1705 r	-0.9608
-1.6091 ray	-1.8446
-3.0548 ray's	-1.1710
-3.6403 reach	-0.6301
-4.6403 read	0.0654
-4.6403 ready	0.0793
-4.3393 really	0.0002
-4.6403 reboot	0.0662
-4.4642 receptacle	-0.6336
-4.9427 recover	0.0006
-4.9427 rectify	0.0120
-4.6403 recyclable	0.0068
-4.6403 recyclables	-0.5367
-3.3972 recycle	-1.5020
-3.5796 recycling	-0.8193
-4.4642 redo	-0.6970
-4.9427 refreshing	0.0120
-4.4642 refrigerator	-0.6336
-4.9427 refuse	0.0653
-4.9427 relax	0.0000
-4.9427 released	0.0000
-4.9427 relocate	0.0292
-4.2423 remain	-0.8451
-4.4642 remove	-0.6870
-3.4942 report	-1.4332
-4.9427 request	0.0653
-4.4642 requested	-0.6987
-4.6403 requesting	-0.5367
-3.9871 requests	-1.0665
-4.9427 required	0.0653
-3.9871 reschedule	-1.0412
-3.7952 research	-1.1753
-4.9427 reset	0.0653
-4.9427 response	0.0292
-4.4642 rest	-0.6336
-4.6403 restart	-0.5367
-4.9427 resting	0.0001
-4.9427 resume	0.0653
-3.4098 retrieve	-1.5296
-4.0962 reword	-0.5410
-3.6626 right	-0.7539
-4.3393 ring	-0.6989
-4.6403 road	-0.5367
-4.9427 rob	0.0060
-2.7265 robot	-1.1183
-4.3393 roll	-0.6694
-4.4642 rolling	-0.6989
-4.6403 rolodex	-0.5367
-1.9027 room	-1.7650
-3.9413 rooms	-0.3376
-4.9427 row	0.0653
-4.9427 rubbish	0.0008
-4.4642 run	0.0708
-2.3960 s	-1.6058
-4.9427 sad	0.0653
-4.3393 said	-0.7128
-4.9427 salad	0.0038
-4.6403 same	-0.4770
-2.3243 sandwich	-2.0069
-3.9871 save	-0.5459
-4.3393 say	-0.6267
-4.9427 scrap	0.0000
-4.9427 search	0.0120
-4.0962 second	-0.5874
-2.7186 secretary	-1.1377
-4.6403 security	-0.4771
-2.8731 see	-1.5328
-4.6403 select	0.0137
-4.9427 self	0.0000
-3.0437 send	-1.0292
-4.4642 sent	-0.6968
-3.8274 serve	-1.1945
-4.4642 service	-0.6989
-4.3393 services	-0.6290
-4.9427 set	0.0001
-4.4642 seven	0.0728
-4.9427 sex	0.0653
-3.0548 she	-1.9146
-4.9427 shop	0.0653
-3.0962 should	-1.8086
-4.9427 side	0.0653
-4.9427 simply	0.0040
-4.9427 singapore	0.0003
-4.3393 sink	-0.6292
-2.3360 six	-1.2879
-4.9427 skip	0.0002
-4.9427 sledge	0.0000
-4.0962 sleepy	-0.8881
-1.8709 slot	-2.4063
-4.1632 slots	-0.8375
-4.9427 slow	0.0001
-4.9427 small	0.0000
-4.6403 smartphone	0.0018
-4.6403 snack	-0.5367
-4.3393 snacks	-0.7128
-3.7372 so	-1.2564
-4.2423 soda	-0.7798
-4.3393 soft	-0.6989
-2.8844 some	-1.0835
-4.9427 somebody	0.0020
-4.4642 someone	0.0706
-3.0663 something	-1.7827
-4.9427 sometimes	0.0010
-4.2423 sorry	0.1207
-4.1632 speak	-0.8159
-4.9427 spring	0.0000
-4.9427 springs	0.0292
-4.9427 stairs	0.0653
-4.1632 start	-0.9541
-4.9427 states	0.0038
-4.9427 stay	0.0021
-4.4642 staying	-0.6987
-3.8621 steps	-1.0460
-4.4642 stimulate	-0.6984
-1.8014 stone	-1.5987
-3.8999 stone's	-0.2530
-3.9413 stop	-1.0484
-4.4642 story	-0.6990
-4.0382 straight	-0.6290
-4.9427 struck	0.0001
-4.6403 stuff	-0.5367
-4.1632 stupid	-0.3016
-4.9427 sturdy	0.0000
-4.9427 suck	0.0002
-4.9427 suddenly	0.0001
-4.9427 sun	0.0097
-2.6765 supervisor	-1.8369
-4.9427 supervisors	0.0039
-4.9427 support	0.0001
-4.0962 sure	-0.5254
-4.9427 system	0.0000
-3.1705 t	-0.9542
-1.8603 take	-1.7340
-4.4642 taking	-0.6870
-4.9427 tale	0.0047
-3.5434 talk	-1.3319
-4.6403 talking	0.0654
-4.9427 target	0.0653
-3.7952 task	-0.6543
-3.7952 tea	-1.1047
-4.9427 team	0.0292
-4.9427 tech	0.0653
-3.7652 tell	-0.5370
-3.5611 telling	-1.3920
-4.4642 tells	-0.6930
-4.6403 terminate	-0.4770
-4.9427 text	0.0003
-4.4642 than	-0.6988
-3.5796 thank	-1.3920
-4.6403 thanks	-0.5367
-3.0721 that	-0.9881
-4.9427 thats	0.0005
-1.5660 the	-1.5125
-4.9427 theaters	0.0653
-3.9413 them	-0.6304
-3.5611 then	-1.4447
-3.2253 there	-0.7131
-4.3393 these	-0.6336
-4.9427 thick	0.0000
-4.0962 thing	-0.3260
-4.2423 think	-0.1485
-4.4642 third	-0.6987
-4.6403 thirst	0.0654
-3.5263 thirsty	-1.3937
-3.3078 this	-0.7486
-4.3393 though	-0.6987
-1.5997 three	-2.6458
-4.4642 through	-0.5901
-4.3393 throw	-0.6979
-4.1632 ti	-0.8118
-3.9871 till	-1.0642
-4.6403 time	-0.4754
-4.9427 times	0.0021
-4.9427 tin	0.0000
-4.9427 tips	0.0653
-4.4642 tired	-0.6988
-1.1873 to	-1.6592
-4.6403 too	0.0733
-4.9427 took	0.0001
-4.9427 top	0.0003
-4.9427 tote	0.0653
-4.9427 tours	0.0653
-3.7652 towards	-1.1656
-4.6403 transcribed	-0.6017
-4.4642 transfer	-0.4622
-4.2423 transport	-0.2880
-2.6885 trash	-2.1553
-3.0275 trashcan	-1.8281
-4.9427 trolly	0.0653
-4.4642 try	-0.4479
-4.9427 tumbler	0.0292
-4.9427 turk	0.0000
-4.4642 turn	0.0003
-1.9189 two	-1.4880
-4.4642 tylenol	-0.6336
-4.3393 type	-0.7128
-3.3285 u	-0.7456
-4.3393 uh	-0.7128
-3.8274 understand	-0.6185
-4.6403 unit	-0.5367
-4.9427 united	0.0000
-4.9427 unless	0.0004
-4.2423 until	-0.8451
-2.8341 up	-1.2699
-4.9427 upon	0.0003
-4.4642 upper	-0.6990
-4.9427 usa	0.0653
-4.6403 use	0.0994
-4.9427 v	0.0653
-4.9427 vegas	0.0000
-4.6403 very	0.0000
-3.9871 visit	-0.4826
-4.2423 w	-0.4610
-4.0382 wait	-0.8366
-4.0962 waiting	-0.9697
-2.2154 walk	-1.7480
-4.3393 walking	-0.7778
-4.9427 wall-e	0.0060
-4.9427 walt	0.0000
-4.9427 wanna	0.0006
-2.7291 want	-1.1440
-3.8999 wanted	-1.1276
-2.3469 wants	-1.6813
-4.9427 war	0.0653
-3.9871 wards	-1.0698
-4.3393 was	-0.6951
-4.6403 wash	0.0120
-3.4942 waste	-0.7824
-4.9427 wastepaper	0.0008
-4.9427 watch	0.0120
-3.0901 water	-1.0316
-4.9427 way	0.0292
-4.9427 weekend	0.0060
-4.9427 welcome	0.0120
-4.4642 well	0.0677
-2.9039 what	-0.7857
-4.9427 whatever	0.0059
-4.9427 whats	0.0007
-4.6403 wheeled	0.0664
-4.4642 wheelie	-0.6982
-3.9871 when	-0.9937
-3.2692 where	-0.9301
-3.8274 which	-0.6656
-3.8621 white	-0.8436
-4.0382 who	-0.2528
-4.6403 why	0.0654
-3.4228 will	-0.6875
-4.4642 willing	-0.6698
-4.3393 window	-0.5995
-4.9427 windows	0.0000
-2.8046 with	-1.6806
-4.3393 within	-0.6870
-4.9427 without	0.0000
-4.9427 wont	0.0001
-4.9427 wooden	0.0001
-3.8999 work	-1.0065
-4.4642 worker	-0.6990
-3.8274 works	-1.1121
-4.9427 worry	0.0000
-3.2601 would	-1.6739
-4.9427 write	0.0653
-4.9427 writing	0.0120
-4.9427 x	0.0032
-4.3393 y	-0.6331
-4.9427 ye	0.0653
-4.3393 yea	-0.7128
-4.0962 yeah	-0.8889
-1.8043 yes	-1.6134
-4.4642 yo	0.0800
-1.8669 you	-1.2996
-4.6403 you're	0.0047
-2.7681 your	-1.2270
-3.4500 yourself	-0.9232
-4.9427 yup	0.0653
-2.1399 zero	-1.9006

\2-grams:
-0.0000 </s> <s> 0.0030
-3.1863 <s> </s> 3.1833
-2.3992 <s> a -0.1025
-99.9990 <s> about 0.0000
-99.9990 <s> access 0.6021
-3.7883 <s> acquire 0.0000
-99.9990 <s> affirmative 0.0000
-99.9990 <s> again 0.0000
-99.9990 <s> ah 0.0000
-3.7883 <s> an 0.4559
-3.7883 <s> and 0.0282
-3.4873 <s> anything -0.4260
-2.9754 <s> are -0.7767
-3.6123 <s> arrange 0.3680
-99.9990 <s> as 0.0580
-2.9133 <s> ask -0.8888
-99.9990 <s> asshole 0.0000
-2.6914 <s> assist -0.0692
-3.4873 <s> assuming 0.0969
-99.9990 <s> at 0.4393
-3.6123 <s> attain 0.1249
-3.6123 <s> attend -0.1761
-99.9990 <s> available 0.0000
-99.9990 <s> away 0.6990
-2.8589 <s> ballard -0.4007
-99.9990 <s> before 0.0000
-99.9990 <s> behold 0.0000
-99.9990 <s> being 0.0000
-99.9990 <s> below 0.1383
-99.9990 <s> between 0.0000
-3.4873 <s> beverage -0.4771
-99.9990 <s> big 0.0000
-3.3112 <s> bin -0.5316
-99.9990 <s> binder 0.1891
-2.5980 <s> blue -0.0212
-2.6744 <s> bob -0.6922
-3.7883 <s> box 0.0000
-99.9990 <s> boxes 0.6021
-3.6123 <s> bread -0.2009
-1.2480 <s> bring -0.4462
-99.9990 <s> brink 0.0000
-99.9990 <s> built 0.0000
-3.1863 <s> burger -0.6706
-3.1863 <s> buy 0.1383
-99.9990 <s> c 0.0000
-3.3904 <s> calendar -0.3396
-2.6914 <s> call -0.0969
-1.7092 <s> can -1.6630
-99.9990 <s> cancel 0.0000
-99.9990 <s> cant 0.1761
-3.2443 <s> cardboard -0.4694
-3.0102 <s> carry -0.1984
-99.9990 <s> cart 0.0000
-3.6123 <s> cat 0.0000
-2.9754 <s> cell 1.0196
-3.3904 <s> cellphone -0.5119
-99.9990 <s> changed 0.0000
-3.4873 <s> cheeseburger -0.1899
-99.9990 <s> chips 0.0000
-99.9990 <s> choose 0.0000
-99.9990 <s> chose 0.0000
-3.1351 <s> clean -0.1303
-3.2443 <s> climb 0.0580
-99.9990 <s> close 0.0000
-99.9990 <s> coca 0.0000
-99.9990 <s> code 0.6990
-2.5579 <s> coffee -0.6781
-3.4873 <s> coke 0.2109
-3.4873 <s> collect 0.0969
-3.1351 <s> come -0.4771
-99.9990 <s> command 0.2041
-3.6123 <s> commands 0.3010
-3.6123 <s> conference 0.3358
-3.3904 <s> container -0.2218
-99.9990 <s> contents 0.0000
-99.9990 <s> cookies 0.0000
-3.3112 <s> correct 0.2218
-2.6422 <s> could 0.1210
-99.9990 <s> cut 0.0000
-1.2880 <s> dana -0.4099
-2.7672 <s> dana's -0.1286
-3.6123 <s> date -0.4102
-2.2698 <s> deliver -0.2913
-99.9990 <s> destination 0.6990
-99.9990 <s> diary 0.1375
-99.9990 <s> director 0.0138
-3.6123 <s> directory 0.1761
-2.3904 <s> do -0.7552
-3.0102 <s> doctor 0.7959
-99.9990 <s> doing 0.0000
-3.3904 <s> don't -0.5528
-3.3112 <s> down -0.4424
-1.9960 <s> dr -0.6621
-3.6123 <s> drink -0.2112
-99.9990 <s> duh 0.0000
-3.6123 <s> dumpster 0.1249
-99.9990 <s> dust 0.9542
-3.4873 <s> dustbin -0.3332
-99.9990 <s> dustbins 0.0000
-99.9990 <s> eat 0.0000
-99.9990 <s> eating 0.6021
-99.9990 <s> education 0.0000
-3.6123 <s> empty 0.0000
-3.6123 <s> es 0.1249
-2.6123 <s> eve -0.8861
-99.9990 <s> exactly 0.6021
-99.9990 <s> exit 0.0000
-3.4873 <s> feed 0.0000
-99.9990 <s> feel 0.0000
-3.7883 <s> fetch 0.0000
-99.9990 <s> file 0.0580
-99.9990 <s> files 0.0000
-99.9990 <s> fin 0.0000
-2.5709 <s> find 0.1681
-99.9990 <s> fine 0.0000
-99.9990 <s> first 0.0000
-99.9990 <s> firstly 0.0000
-3.1351 <s> five -0.8540
-3.4873 <s> fix 0.0969
-3.6123 <s> floor -0.1360
-99.9990 <s> follow 0.0000
-2.9432 <s> food -0.7731
-3.7883 <s> for 0.0119
-99.9990 <s> forget 0.0000
-3.6123 <s> foster -0.0964
-2.6123 <s> four -1.2562
-3.4873 <s> from -0.1403
-3.1863 <s> fuck 0.1181
-99.9990 <s> g 0.0000
-2.9432 <s> garbage 0.7231
-3.4873 <s> gather 0.0969
-1.5592 <s> get -0.0161
-1.3965 <s> give -0.7736
-0.9229 <s> go -0.1917
-99.9990 <s> goal 0.6021
-3.4873 <s> goo 0.0000
-99.9990 <s> good 0.3979
-99.9990 <s> got 0.0000
-3.6123 <s> goto 0.0000
-2.8341 <s> grab -0.3844
-3.6123 <s> ground 0.2218
-3.1351 <s> hamburger -0.7159
-3.6123 <s> hand 0.0000
-3.4873 <s> handle 0.0969
-3.6123 <s> have -0.0958
-3.1863 <s> he 0.0254
-99.9990 <s> head 0.0000
-3.0102 <s> hello 0.0669
-2.2765 <s> help -0.6046
-99.9990 <s> her 0.0816
-99.9990 <s> here 0.3680
-99.9990 <s> hey 0.0000
-2.9754 <s> hi 0.0902
-99.9990 <s> hide 0.0000
-99.9990 <s> hmm 0.0000
-99.9990 <s> holy 0.0000
-2.8106 <s> how 0.0113
-99.9990 <s> huh 0.0000
-99.9990 <s> hungry 0.3505
-1.6845 <s> i -0.5662
-3.3904 <s> i'm -0.5809
-3.3904 <s> if -0.5925
-99.9990 <s> ignore 0.0000
-3.7883 <s> in 0.0184
-3.3904 <s> intern 0.6173
-99.9990 <s> into 0.0000
-99.9990 <s> inventory 0.0000
-3.3112 <s> is -0.7612
-99.9990 <s> it 0.0129
-2.0808 <s> item -0.4136
-3.3112 <s> items -0.5778
-99.9990 <s> java 0.0000
-99.9990 <s> juice 0.0000
-2.9432 <s> just -0.5277
-3.4873 <s> keep 0.0000
-2.9133 <s> lab -0.2958
-99.9990 <s> labs 0.6021
-99.9990 <s> leave 0.0000
-99.9990 <s> leaving 0.0000
-99.9990 <s> list 0.0000
-99.9990 <s> load 0.0000
-99.9990 <s> locate 0.0000
-3.2443 <s> look 0.1091
-99.9990 <s> lose 0.0000
-3.6123 <s> lunch 0.4260
-3.1863 <s> make -0.4472
-99.9990 <s> material 0.6021
-3.6123 <s> may 0.1249
-3.6123 <s> me -0.3372
-2.8341 <s> meet -0.6976
-3.4873 <s> meeting 0.7404
-3.6123 <s> miss 0.0000
-3.0102 <s> mobile -0.4480
-2.8589 <s> mooney -0.4007
-2.7883 <s> move 0.1139
-2.4559 <s> mr -0.8096
-3.4873 <s> n -0.1147
-3.3904 <s> name -0.3358
-3.3904 <s> navigate -0.2596
-99.9990 <s> near 0.0000
-3.2443 <s> need -0.1088
-99.9990 <s> negative 0.0000
-99.9990 <s> nine 0.0000
-1.4036 <s> no -0.4402
-99.9990 <s> nobody 0.0000
-99.9990 <s> none 0.0000
-99.9990 <s> nope 0.0000
-2.7883 <s> not -0.7959
-99.9990 <s> notebook 0.1761
-2.5842 <s> nothing -0.6131
-3.4873 <s> number 0.2840
-99.9990 <s> o 0.1377
-3.6123 <s> obtain 0.3010
-3.4873 <s> of -0.5968
-2.7883 <s> office -0.6913
-99.9990 <s> offices 0.6021
-99.9990 <s> oh 0.0000
-3.0480 <s> ok 0.0726
-3.3112 <s> okay 0.0000
-3.1351 <s> on -0.6406
-3.3112 <s> one -0.4997
-3.4873 <s> open 0.0000
-99.9990 <s> out 0.1761
-3.6123 <s> p 0.9031
-3.7883 <s> people 0.3010
-1.2866 <s> peter -0.4142
-2.7672 <s> peter's -0.1286
-3.3112 <s> phd 0.2608
-3.1351 <s> phone -0.2345
-2.1499 <s> pick 0.0499
-3.4873 <s> place -0.2430
-3.6123 <s> plastic -0.2218
-1.3626 <s> please -1.2648
-99.9990 <s> power 0.0000
-3.4873 <s> present -0.1249
-99.9990 <s> press 0.0000
-3.3112 <s> proceed 0.0669
-3.2443 <s> provide -0.1083
-3.0894 <s> put -0.6990
-99.9990 <s> quit 0.0000
-1.2880 <s> ray -0.4099
-2.7672 <s> ray's -0.1286
-3.4873 <s> reach -0.5229
-3.7883 <s> reboot 0.0000
-3.7883 <s> recyclable 0.0000
-3.6123 <s> recyclables 0.1249
-3.3112 <s> recycle 0.7901
-3.2443 <s> recycling -0.2253
-3.4873 <s> redo 0.0969
-99.9990 <s> refuse 0.0000
-99.9990 <s> relocate 0.0000
-3.2443 <s> report 0.6173
-99.9990 <s> reset 0.0000
-3.6123 <s> restart 0.1249
-2.7092 <s> retrieve 0.1761
-3.6123 <s> right 0.5229
-2.2698 <s> robot -0.5555
-3.4873 <s> roll 0.0969
-2.4873 <s> room -0.0586
-3.3904 <s> rooms -0.2596
-99.9990 <s> rubbish 0.0000
-99.9990 <s> run 0.0000
-3.4873 <s> s -0.5960
-99.9990 <s> sad 0.0000
-99.9990 <s> salad 0.0000
-3.6123 <s> same 0.0000
-2.9432 <s> sandwich -0.5357
-3.6123 <s> save 0.0000
-99.9990 <s> search 0.0000
-3.3112 <s> secretary -0.3083
-2.9754 <s> see 0.0063
-3.7883 <s> select 0.0000
-99.9990 <s> self 0.0000
-2.4661 <s> send -0.0296
-3.7883 <s> serve 0.5051
-2.8341 <s> she -0.5863
-99.9990 <s> simply 0.0000
-99.9990 <s> skip 0.0000
-2.3185 <s> slot 0.0713
-99.9990 <s> slow 0.0000
-3.6123 <s> snack 0.1249
-99.9990 <s> snacks 0.7782
-99.9990 <s> so 0.0000
-3.6123 <s> soda 0.3680
-3.4873 <s> soft 0.0969
-3.7883 <s> some 0.0000
-99.9990 <s> someone 0.0000
-3.4873 <s> something -0.1249
-3.7883 <s> sorry 0.0000
-3.2443 <s> start 0.1091
-2.8589 <s> stone -0.4007
-3.2443 <s> stop -0.5093
-3.7883 <s> straight 0.2218
-3.6123 <s> stuff 0.1249
-99.9990 <s> stupid 0.3680
-99.9990 <s> suck 0.0000
-2.9133 <s> supervisor -0.6899
-99.9990 <s> support 0.0000
-3.3112 <s> sure -0.1761
-1.1724 <s> take -0.2561
-99.9990 <s> tale 0.0000
-3.0894 <s> talk -0.2676
-99.9990 <s> talking 0.0000
-99.9990 <s> tea 0.2499
-99.9990 <s> tech 0.0000
-99.9990 <s> tell 0.0000
-3.6123 <s> terminate 0.0000
-2.8106 <s> thank 0.1192
-99.9990 <s> thanks 0.6021
-3.3904 <s> that -0.4286
-99.9990 <s> thats 0.0000
-2.0765 <s> the -0.1789
-3.1351 <s> there -0.8239
-99.9990 <s> thirsty 0.3632
-99.9990 <s> this 0.0669
-1.7819 <s> three -0.7296
-99.9990 <s> through 0.6021
-1.5643 <s> to -0.8089
-99.9990 <s> took 0.0000
-99.9990 <s> tote 0.0000
-3.0102 <s> towards -0.4508
-3.6123 <s> transfer 0.0000
-3.7883 <s> transport 0.0000
-2.7883 <s> trash -0.3349
-3.3904 <s> trashcan -0.5905
-99.9990 <s> turn 0.0000
-3.1863 <s> two -0.4919
-3.2443 <s> u -0.1083
-3.3904 <s> uh 0.0792
-99.9990 <s> up 0.0259
-99.9990 <s> visit 0.1549
-3.4873 <s> wait 0.3010
-1.5200 <s> walk 0.0255
-99.9990 <s> walt 0.0000
-3.2443 <s> want 0.0377
-3.7883 <s> wash 0.0000
-3.4873 <s> waste 0.4210
-99.9990 <s> wastepaper 0.0000
-3.2443 <s> water -0.2202
-99.9990 <s> welcome 0.0000
-99.9990 <s> well 0.0000
-2.3040 <s> what -0.4969
-99.9990 <s> whatever 0.0000
-99.9990 <s> whats 0.0000
-3.7883 <s> wheeled 0.0000
-99.9990 <s> wheelie 0.6990
-99.9990 <s> when 0.3010
-2.8341 <s> where -1.0654
-3.7883 <s> which 0.0000
-99.9990 <s> white 0.1047
-3.7883 <s> who 0.0000
-3.7883 <s> why 0.0000
-3.0480 <s> will -0.8195
-3.3904 <s> would -0.6305
-99.9990 <s> writing 0.0000
-99.9990 <s> y 0.0000
-99.9990 <s> ye 0.0000
-3.4873 <s> yea 0.1761
-3.1863 <s> yeah 0.0512
-0.9530 <s> yes 0.0047
-1.8935 <s> you -1.0489
-99.9990 <s> you're 0.0000
-3.3904 <s> your 0.4856
-3.0102 <s> yourself -0.5740
-99.9990 <s> yup 0.0000
-2.2166 a appointment -0.1984
-99.9990 a bathroom 0.0000
-1.8808 a beverage 0.3332
-2.3927 a bin -0.4018
-2.1497 a binder 0.3854
-99.9990 a bit 0.0000
-2.3927 a blue -0.5575
-2.5176 a book -0.3278
-2.2958 a bottle 0.0792
-2.2958 a bread -0.5099
-2.2166 a building 0.1249
-1.2788 a burger -1.0255
-1.6725 a calendar -0.4036
-2.5176 a calling 0.0000
-2.3927 a can -0.5981
-99.9990 a car 0.0000
-1.8486 a cell 0.9874
-2.0917 a cellphone -0.6690
-99.9990 a cellular 0.9031
-1.7906 a cheeseburger 0.2872
-0.9613 a coffee -0.9339
-2.2958 a coke 0.4150
-2.3927 a command 0.3010
-2.6937 a conference 0.0348
-2.2958 a cop 0.0792
-0.9948 a cup -1.3310
-99.9990 a day 0.3010
-1.9948 a desk 0.2553
-99.9990 a desktop 0.0000
-2.3927 a diary -0.5830
-2.6937 a directory 0.6532
-2.3927 a disgruntled 0.0969
-99.9990 a doctor 0.0000
-1.0263 a drink -0.8359
-2.5176 a dust 0.4771
-2.3927 a dustbin -0.3727
-99.9990 a eve 0.3439
-99.9990 a f 0.0000
-2.0405 a favor 0.0458
-2.2958 a few 0.0792
-2.3927 a file -0.3680
-99.9990 a flamethrower 0.0000
-99.9990 a flip 0.0000
-2.2958 a floor -0.2644
-2.3927 a food -0.3280
-99.9990 a fucking 0.0000
-2.3927 a garbage -0.3456
-1.9534 a glass -0.8758
-99.9990 a ham 0.0000
-1.3613 a hamburger -0.5233
-99.9990 a item 0.0126
-1.8486 a l -0.8934
-2.3927 a longtime 0.0969
-2.3927 a medium 0.0969
-2.3927 a merciful 0.0969
-2.5176 a mobile -0.3149
-99.9990 a moron 0.0000
-2.3927 a n -0.5597
-99.9990 a new 0.0000
-2.3927 a notebook -0.4260
-99.9990 a one 0.0000
-1.7160 a peanut 0.1192
-99.9990 a pen 0.0000
-1.8187 a pencil 0.0792
-2.6937 a person 0.0000
-2.3927 a personal 0.0969
-1.8187 a phone -0.3655
-99.9990 a piece 0.4771
-2.3927 a pillow 0.0969
-99.9990 a pizza 0.6990
-99.9990 a place 0.0000
-99.9990 a puck 0.0000
-1.9948 a question -0.0126
-99.9990 a r 0.0000
-2.3927 a recycle 0.2672
-99.9990 a recycling 0.0000
-2.3927 a rest 0.0969
-2.2958 a ring 0.0000
-1.9156 a robot -0.9067
-99.9990 a rolodex 0.6021
-0.7468 a sandwich -0.8008
-99.9990 a second 0.0000
-99.9990 a shop 0.0000
-99.9990 a slot 0.0000
-99.9990 a small 0.0000
-99.9990 a smartphone 0.0000
-99.9990 a snacks 0.7782
-2.3927 a soda 0.2430
-99.9990 a stupid 0.0000
-99.9990 a sturdy 0.0000
-2.3927 a supervisor -0.5930
-99.9990 a target 0.0000
-2.2958 a task 0.3291
-99.9990 a team 0.0000
-99.9990 a text 0.0000
-99.9990 a three 0.0361
-1.8187 a trash -0.7782
-99.9990 a very 0.0000
-99.9990 a walk 0.0024
-2.0405 a waste -0.6058
-2.5176 a water -0.2382
-99.9990 a wooden 0.0000
-99.9990 able to 0.0002
-99.9990 about drinking 0.0000
-99.9990 about my 0.1814
-99.9990 about that 0.0000
-99.9990 about this 0.0881
-0.3680 about you -0.3869
-99.9990 above </s> 4.0864
-99.9990 absolutely right 0.5229
-99.9990 abut you 0.0000
-0.1249 access to 0.0015
-99.9990 accommodation </s> 4.0864
-0.0969 accomplish the -0.6015
-99.9990 acquire item 0.0204
-99.9990 acquire the 0.1280
-0.0792 action </s> 3.3874
-0.0792 address </s> 3.3874
-99.9990 address is 0.0072
-99.9990 affirmative </s> 4.0864
-99.9990 again </s> 4.0864
-99.9990 ah </s> 4.0864
-99.9990 ahead </s> 4.0864
-99.9990 aid when 0.0000
-0.0512 aircraft </s> 3.1833
-99.9990 all </s> 4.0864
-0.8129 all difficult 0.0000
-99.9990 all items 0.0395
-99.9990 all my 0.0000
-0.2109 all the -0.4724
-99.9990 along the 0.0018
-0.1761 also bring 0.0645
-99.9990 am </s> 4.0864
-0.8519 am asking 0.3010
-99.9990 am drowsy 0.1065
-1.2041 am fed 0.0969
-99.9990 am feeling 0.0367
-1.0280 am giving 0.2218
-1.2041 am going 0.2430
-99.9990 am i 0.0000
-1.1072 am instructing 0.0792
-99.9990 am navigating 0.0000
-0.9611 am not -0.7948
-99.9990 am placing 0.0000
-1.3291 am requesting 0.1249
-99.9990 am sorry 0.0000
-99.9990 am talking 0.0000
-0.5509 am telling 0.1427
-99.9990 amazon </s> 4.0864
-99.9990 an aircraft 0.9542
-99.9990 an apple 0.0000
-1.1761 an appointment -0.4025
-99.9990 an experimental 0.0000
-99.9990 an idiot 0.0000
-1.1761 an intern -0.5376
-0.1871 an item -1.2440
-99.9990 an object 0.0000
-1.1761 an order 0.0969
-1.1761 an upper 0.0969
-1.2371 and a -0.8667
-99.9990 and also 0.4771
-2.0547 and ask -0.5842
-2.0547 and assist -0.5104
-2.2978 and bread -0.0248
-1.4374 and bring -1.0727
-2.2978 and brink 0.0969
-99.9990 and buy 0.0000
-99.9990 and canada 0.0000
-1.4085 and coffee -0.5555
-99.9990 and complete 0.0000
-2.2978 and converse 0.0969
-2.2978 and cup -0.5578
-1.8998 and deliver -0.5554
-99.9990 and die 0.6021
-2.2978 and dispose -0.3468
-2.0547 and do -0.7638
-1.5988 and drink -0.6944
-99.9990 and drinking 0.0000
-2.2009 and drinks 0.4150
-2.2978 and eat -0.5653
-2.5988 and empty 0.0000
-2.5988 and enter 0.0000
-99.9990 and feed 0.0000
-2.4227 and find 0.4102
-99.9990 and fix 0.0000
-2.2978 and food -0.4764
-1.6694 and get -0.0624
-0.6032 and give -1.9748
-1.7859 and go -0.2157
-2.2978 and grab -0.5295
-2.2978 and had 0.0969
-1.7859 and hand -0.8129
-2.0547 and handover -0.4649
-2.2978 and he -0.5271
-1.8998 and help -0.9678
-99.9990 and into 0.0000
-1.7537 and jelly 0.0300
-99.9990 and jump 0.0000
-2.2978 and keep -0.3010
-2.2978 and knock 0.1761
-99.9990 and make 0.0000
-1.4085 and meet -0.8246
-2.2978 and milk -0.4472
-2.4227 and mr 0.3010
-2.2978 and office -0.5999
-99.9990 and offices 0.6021
-2.2978 and one -0.5996
-2.2978 and peanut 0.7959
-2.2978 and place -0.4771
-99.9990 and present 0.0000
-2.2978 and put -0.5477
-99.9990 and reach 0.0000
-99.9990 and recycling 0.0000
-2.1217 and remain 0.0669
-2.2978 and report 0.8603
-1.2466 and sandwich -0.7246
-1.8206 and see -0.0955
-99.9990 and she 0.0105
-99.9990 and some 0.1999
-2.2978 and something -0.1249
-2.2978 and speak 0.2430
-2.2978 and stimulate 0.0969
-1.0425 and take -1.1721
-2.2978 and talk 0.1303
-2.2978 and tell 0.2788
-99.9990 and thank 1.3979
-1.9967 and the -0.5718
-1.8998 and then -0.2366
-1.9456 and to -0.1360
-2.2978 and transport -0.2041
-2.5988 and turn 0.0000
-99.9990 and two 0.4112
-2.2009 and wait 0.2041
-1.5574 and walk -0.4605
-2.2978 and water -0.5024
-2.2009 and you -0.6818
-99.9990 another </s> 4.0864
-99.9990 answer me 0.0000
-99.9990 answer my 0.0217
-0.1761 answer the -0.5932
-0.5643 any differently 0.0000
-99.9990 any help 0.1584
-0.4393 any items -0.5626
-0.5643 any thing -0.0512
-99.9990 anyone needs 0.0000
-0.4771 anything </s> 3.1322
-99.9990 anything but 0.0580
-0.4771 anything just -0.6990
-0.8293 anything to 0.3435
-0.9542 anything with 0.0367
-99.9990 anything you 0.0007
-0.0969 anywhere choose 0.0969
-0.0969 appears to -0.6015
-99.9990 apple </s> 4.0864
-0.4337 appointment </s> 3.2413
-0.6767 appointment till -0.4260
-0.4337 appointment with -0.8084
-0.0969 appointments </s> 3.4843
-99.9990 are </s> 4.0864
-99.9990 are absolutely 0.0000
-0.9208 are available -0.3424
-99.9990 are know 0.0307
-99.9990 are needed 0.0969
-99.9990 are not 0.0000
-1.3979 are on 0.0000
-99.9990 are right 0.5229
-99.9990 are to 0.0005
-99.9990 are u 0.0969
-1.0969 are willing 0.0969
-0.2676 are you -0.4654
-1.2218 are your -0.4687
-99.9990 area with 0.0000
-99.9990 aren't a 0.0000
-99.9990 aren't you 0.0902
-0.3680 arrange conference 0.3358
-99.9990 arrange my 0.0000
-0.3680 arrange the 0.0023
-99.9990 arrive </s> 4.0864
-99.9990 arse to 0.0025
-99.9990 as all 0.4150
-99.9990 as before 0.0000
-99.9990 as dana 0.0097
-99.9990 as fast 0.0000
-99.9990 as goal 0.6021
-99.9990 as in 0.0000
-99.9990 as peter 0.0099
-99.9990 as ray 0.0097
-0.6021 as she -0.4840
-99.9990 as the 0.0124
-0.9031 as well 0.0000
-99.9990 as you 0.0032
-1.0142 ask dana -0.1335
-1.0142 ask dr 0.8999
-1.0142 ask for 0.0262
-0.6463 ask her -0.8224
-1.0142 ask peter -0.1343
-1.0142 ask ray -0.1335
-0.8893 ask she -0.5809
-0.8893 ask what -0.5518
-0.0969 asked that -0.5691
-99.9990 asked you 0.0047
-99.9990 asking </s> 4.0864
-99.9990 asking a 0.0044
-99.9990 asking about 0.0000
-0.6021 asking for -0.2643
-99.9990 asking question 0.0000
-0.2341 asking you -0.9442
-0.0969 ass and -0.5999
-99.9990 asshole </s> 4.0864
-99.9990 assigned </s> 4.0864
-99.9990 assignment work 0.2688
-99.9990 assist ballard 0.3939
-99.9990 assist bob 0.0000
-0.7469 assist dana -0.4795
-99.9990 assist eve 0.3439
-0.8261 assist her -0.8883
-0.9810 assist him -0.5441
-1.5250 assist me 0.1400
-99.9990 assist mooney 0.3939
-0.7469 assist peter -0.4813
-0.7469 assist ray -0.4795
-99.9990 assist stone 0.3939
-0.9810 assist the -0.8257
-0.1091 assistance </s> 2.9403
-0.7782 assistance to 0.3360
-99.9990 assistance you 0.0014
-0.0969 assuming you -0.5981
-99.9990 at all 0.0000
-1.2844 at her -0.5205
-99.9990 at his 0.4685
-1.2844 at number -0.3502
-0.6560 at room -0.4651
-99.9990 at slot 0.1478
-0.1963 at three -0.9363
-0.1249 attain item -0.4229
-99.9990 attend a 0.0009
-99.9990 attend at 0.4393
-0.3010 attend conference 0.0348
-99.9990 austin to 0.0000
-0.6021 available </s> 2.9103
-99.9990 available block 0.0000
-99.9990 available fares 0.0000
-0.7782 available in -0.5211
-1.0792 available item -0.6964
-1.0792 available items -0.6044
-0.4771 available to -1.2987
-1.3010 available with -0.4307
-0.0969 awake </s> 3.4843
-0.0969 away from -0.5930
-0.3237 b </s> 2.6392
-99.9990 b b 0.0227
-0.6247 b e -0.9031
-99.9990 b go 0.0027
-99.9990 b now 1.0414
-1.0719 b o -0.4342
-1.1688 b q 0.4393
-1.2937 b r -0.3802
-99.9990 b robot 0.0458
-99.9990 b the 0.0081
-99.9990 back </s> 4.0864
-99.9990 back to 0.0012
-0.2246 ballard </s> 1.1673
-1.5102 ballard a -0.4996
-2.0645 ballard and -0.0778
-2.4447 ballard at 0.1461
-99.9990 ballard awake 0.6990
-99.9990 ballard bob 0.0444
-99.9990 ballard books 0.7782
-99.9990 ballard but 0.1249
-99.9990 ballard calendar 0.3593
-99.9990 ballard calls 0.6990
-99.9990 ballard cardboard 0.2374
-2.3655 ballard coffee -0.1369
-99.9990 ballard dana 0.3436
-2.3655 ballard director -0.4191
-99.9990 ballard do 0.0144
-99.9990 ballard feel 0.9542
-2.6665 ballard food -0.2188
-99.9990 ballard from 0.0090
-2.5416 ballard he -0.5012
-99.9990 ballard her 0.0081
-99.9990 ballard id 0.6990
-99.9990 ballard if 0.2478
-1.7819 ballard in -1.2397
-1.7123 ballard is -0.4218
-1.9975 ballard item 0.0661
-2.1022 ballard lab -0.6699
-2.6665 ballard location 0.6021
-2.4447 ballard need -0.0261
-1.2924 ballard needs -0.0586
-2.8426 ballard number 0.3768
-1.8426 ballard office -0.2358
-2.6665 ballard on -0.4029
-2.6665 ballard p 0.9031
-1.4447 ballard phd 0.8963
-2.4447 ballard please -0.5721
-99.9990 ballard requests 0.3802
-2.2985 ballard room -0.0414
-1.4194 ballard s -0.5470
-2.8426 ballard sandwich 0.3445
-1.9395 ballard secretary -0.4033
-99.9990 ballard see 0.0489
-2.6665 ballard slot -0.2240
-2.2405 ballard some -0.5327
-2.6665 ballard something 0.0000
-2.1022 ballard supervisor -0.1538
-1.5526 ballard the -0.5117
-2.4447 ballard three -0.4102
-2.2405 ballard to -0.0342
-99.9990 ballard two 0.4112
-99.9990 ballard tylenol 0.6990
-2.1894 ballard want 0.1484
-1.4276 ballard wants 0.5267
-2.3655 ballard with 0.1191
-99.9990 ballard works 0.1627
-2.4447 ballard would 0.0792
-99.9990 ballard's </s> 4.0864
-0.6368 ballard's at -0.0378
-99.9990 ballard's coffee 0.2114
-99.9990 ballard's he 0.2906
-99.9990 ballard's needs 0.0602
-99.9990 ballard's office 0.3848
-0.5119 ballard's s -0.0268
-99.9990 ballard's wants 0.3010
-99.9990 banking </s> 4.0864
-99.9990 barrel </s> 4.0864
-0.2361 basket </s> 2.8311
-0.4122 basket to -0.2289
-99.9990 bathroom </s> 4.0864
-99.9990 bay door 0.0000
-0.3979 be a -0.6003
-99.9990 be at 0.0000
-99.9990 be delivered 0.0000
-99.9990 be doing 0.1383
-99.9990 be fresh 0.0000
-99.9990 be my 0.0000
-99.9990 be present 0.0000
-0.8129 because dana 0.3654
-0.8129 because peter 0.3650
-0.8129 because ray 0.3654
-0.3358 because she -0.6990
-99.9990 because you 0.0000
-99.9990 before five 0.0965
-0.1761 before meeting -0.4901
-99.9990 before you 0.0172
-99.9990 behold the 0.0000
-99.9990 being yourself 0.5051
-0.5643 below foster -0.0964
-0.4393 below or -0.5051
-0.5643 below the -0.4692
-0.0792 beside the -0.6901
-99.9990 besides how 0.0532
-0.1249 best </s> 3.6093
-0.0512 better </s> 3.1833
-99.9990 between the 0.0089
-0.6021 beverage </s> 3.2413
-0.4472 beverage and -0.9308
-0.4472 beverage to -0.6269
-99.9990 beverages </s> 4.0864
-99.9990 big container 0.3632
-0.3634 bin </s> 2.2539
-1.1959 bin and -0.9700
-1.5938 bin but -0.4771
-1.5938 bin delivered 0.0000
-99.9990 bin form 0.0000
-99.9990 bin from 0.0000
-99.9990 bin in 0.4789
-1.7188 bin is -0.4675
-1.5938 bin it -0.5891
-99.9990 bin take 0.0414
-99.9990 bin the 0.1280
-99.9990 bin there 0.1761
-0.4325 bin to -1.4156
-0.4523 binder </s> 3.3082
-0.2304 binder to -0.6640
-99.9990 bing it 0.6378
-99.9990 bit thick 0.0000
-99.9990 block </s> 4.0864
-99.9990 bloody thing 0.0000
-1.1357 blue </s> 3.1322
-99.9990 blue ballard 0.3939
-0.8858 blue basket 0.2872
-1.0107 blue bin -0.2055
-99.9990 blue can 0.0864
-99.9990 blue cardboard 0.0000
-1.2448 blue color 0.1160
-99.9990 blue colored 0.0000
-0.9138 blue container -0.3010
-99.9990 blue device 0.6990
-99.9990 blue dust 0.0000
-1.6128 blue dustbin -0.2083
-99.9990 blue garbage 0.0000
-99.9990 blue holder 0.8451
-1.2448 blue in -0.8426
-1.1357 blue item -0.9306
-99.9990 blue mooney 0.3939
-99.9990 blue plastic 0.2553
-1.0899 blue recycle -0.1308
-99.9990 blue slot 0.0067
-99.9990 blue stone 0.3939
-1.7889 blue thing 0.4260
-0.9760 blue trash -0.4902
-1.4878 blue trashcan -0.4936
-99.9990 blue want 0.0182
-1.6128 blue wheelie 0.2218
-0.3694 bob </s> 2.4429
-1.7118 bob a 0.0102
-1.5357 bob and -0.3525
-1.3139 bob ballard -0.3051
-99.9990 bob food 0.0000
-99.9990 bob he 0.0750
-99.9990 bob hungry 0.0348
-99.9990 bob in 0.0765
-1.4108 bob is 0.1502
-99.9990 bob item 0.0239
-1.3139 bob mooney -0.3051
-1.0128 bob needs 0.0467
-1.5357 bob office -0.0923
-1.5357 bob room -0.4257
-1.2347 bob s -0.2029
-1.3139 bob stone -0.3051
-1.7118 bob the 0.1399
-1.2347 bob wants -0.0512
-99.9990 bobs office 0.3848
-0.5362 book </s> 2.8823
-1.1383 book brought 0.0969
-0.8953 book for -0.7954
-99.9990 book that 0.2704
-0.3090 book to -0.2877
-0.0792 books </s> 3.3874
-0.0792 bottle of -0.6565
-99.9990 box </s> 4.0864
-99.9990 box file 0.2041
-99.9990 box holder 0.8451
-99.9990 box marked 0.0000
-0.1249 boxes </s> 3.6093
-99.9990 brand smartphone 0.0000
-0.4523 bread </s> 3.0072
-0.9294 bread and -0.5999
-0.4175 bread to -0.7408
-0.9294 bread with -0.5779
-99.9990 break room 0.0514
-99.9990 brig dana 0.3436
-99.9990 brig peter 0.3429
-99.9990 brig ray 0.3436
-2.5353 bring </s> 3.6093
-0.9120 bring a -0.9265
-99.9990 bring an 0.4559
-99.9990 bring any 0.1383
-1.8663 bring anything -0.4137
-99.9990 bring ballard 0.0136
-99.9990 bring be 0.0000
-2.4104 bring beverage -0.4102
-99.9990 bring bob 0.0000
-2.4104 bring burger -0.1761
-2.1673 bring calendar -0.6798
-2.4104 bring cellphone -0.4037
-1.1148 bring coffee -0.7174
-99.9990 bring cup 0.0443
-1.2200 bring dana -0.3108
-2.7114 bring dana's 0.0217
-1.8363 bring dr 0.3174
-1.8985 bring drink -0.9623
-99.9990 bring dustbin 0.0000
-99.9990 bring eve 0.0113
-2.0124 bring five -0.9478
-1.6322 bring food -1.1446
-2.4104 bring four -0.3880
-1.8083 bring hamburger -0.5199
-1.8083 bring her -0.6293
-2.5353 bring here -0.3310
-2.2343 bring him -0.2059
-1.2490 bring it -1.0308
-0.8663 bring item -0.8753
-2.1673 bring letter 0.0580
-2.4104 bring me -0.1849
-99.9990 bring mooney 0.0136
-99.9990 bring my 0.0330
-99.9990 bring nothing 0.6880
-2.1673 bring number -0.5263
-2.4104 bring one -0.5652
-1.2131 bring peter -0.3196
-2.7114 bring peter's 0.0217
-1.9332 bring phone -0.8141
-1.2200 bring ray -0.3108
-2.7114 bring ray's 0.0217
-99.9990 bring robot 0.1314
-1.9710 bring sandwich -0.7082
-99.9990 bring secretary 0.0074
-2.1673 bring slot -0.3926
-2.1673 bring some -0.5976
-2.1673 bring something -0.3680
-99.9990 bring stone 0.0136
-0.7744 bring the -1.0673
-2.4104 bring this -0.5246
-2.0582 bring to -0.5622
-2.4104 bring trash -0.2270
-2.4104 bring trashcan 0.1563
-99.9990 bring two 0.4112
-2.4104 bring water -0.5024
-1.9710 bring yourself -0.0134
-99.9990 bringing her 0.0270
-0.0969 brink him -0.5369
-99.9990 brink item 0.0008
-99.9990 broken </s> 4.0864
-0.0969 brought to -0.5986
-0.0969 browns room -0.5506
-0.0580 building </s> 3.2413
-99.9990 building floor 0.3411
-99.9990 built a 0.0022
-0.3825 burger </s> 2.2871
-1.2788 burger and -0.7785
-1.1818 burger for -0.7436
-0.9777 burger from -0.6872
-1.0357 burger in -0.6672
-1.5798 burger item -0.3205
-1.5798 burger notepad 0.0000
-0.6767 burger to -0.1322
-99.9990 business </s> 4.0864
-99.9990 business tips 0.0000
-0.6021 but go -0.5998
-0.9031 but he 0.3340
-0.6021 but i -0.5932
-99.9990 but reach 0.0000
-0.6021 but the -0.5986
-99.9990 but you 0.0000
-0.2688 butter and -1.1384
-99.9990 butter jelly 1.1761
-0.3736 butter sandwich -0.6969
-0.7404 buy a 0.0235
-0.1963 buy item -0.5969
-99.9990 buy me 0.0774
-99.9990 buy milk 0.1549
-99.9990 by bringing 0.0000
-0.5643 by dr 0.8999
-99.9990 by giving 0.0000
-99.9990 by going 0.8451
-99.9990 by gps 0.0000
-99.9990 by navigating 0.0000
-99.9990 by nova 0.0000
-99.9990 by three 0.1792
-99.9990 by you 0.0000
-99.9990 c </s> 4.0864
-0.2041 c e -0.5942
-99.9990 c h 0.0000
-0.7782 c i -0.5987
-99.9990 c o 0.0000
-99.9990 c s 0.0000
-99.9990 c third 0.6990
-0.0669 cafeteria </s> 3.3082
-99.9990 cafeteria and 0.0094
-0.1249 cake </s> 3.6093
-0.2496 calendar </s> 2.0372
-99.9990 calendar and 0.0413
-1.4538 calendar for -0.7976
-1.4538 calendar from -0.3834
-1.3958 calendar in -0.4242
-99.9990 calendar organizer 0.0000
-0.4995 calendar to -0.9295
-99.9990 call and 0.0022
-0.7782 call dana -0.0993
-1.0000 call dana's -0.4664
-99.9990 call for 0.0000
-99.9990 call her 0.0000
-0.7782 call peter -0.1011
-1.0000 call peter's -0.4664
-0.7782 call ray -0.0993
-1.0000 call ray's -0.4664
-99.9990 call secretary 0.3135
-99.9990 call supervisor 0.2899
-99.9990 call you 0.0902
-99.9990 called slot 0.0872
-99.9990 calling </s> 4.0864
-99.9990 calling dana 0.0055
-99.9990 calling peter 0.0054
-99.9990 calling ray 0.0055
-0.2553 calling you -0.6087
-0.0969 calls you -0.5118
-0.7438 can </s> 2.1888
-1.6415 can and -0.8658
-2.3404 can complete 0.6021
-99.9990 can get 0.0501
-99.9990 can have 0.0540
-2.1644 can help 0.1389
-1.6001 can i -0.3245
-1.6872 can in -0.4677
-2.0394 can of -0.5950
-2.0394 can please -0.5994
-99.9990 can send 0.0843
-0.9602 can to -1.3358
-99.9990 can try 0.4771
-2.1644 can u 0.0000
-0.2315 can you -0.9741
-2.0394 can your -0.5936
-99.9990 canada on 0.0000
-99.9990 cancel </s> 4.0864
-99.9990 cannot </s> 4.0864
-99.9990 cannot help 0.1584
-99.9990 cannot reword 0.0000
-99.9990 cant comprehend 0.0000
-0.4771 cant help -0.4719
-0.3522 cant reword -0.0580
-99.9990 cant understand 0.0969
-99.9990 car </s> 4.0864
-0.0969 car of -0.5896
-0.3757 cardboard </s> 3.1833
-99.9990 cardboard bin 0.2465
-99.9990 cardboard boxes 0.6021
-0.8016 cardboard container -0.1139
-0.5006 cardboard to 0.3516
-99.9990 carefully go 0.8982
-0.6767 carry a -0.5163
-0.6767 carry book -0.3089
-0.9777 carry food 0.5222
-0.6767 carry it -0.5861
-99.9990 carry sandwich 0.2016
-0.6767 carry the -0.4574
-99.9990 cart </s> 4.0864
-0.0969 casually </s> 3.4843
-99.9990 cat dana 0.3436
-99.9990 cat peter 0.3429
-99.9990 cat ray 0.3436
-0.0032 cell phone -0.4396
-0.4559 cellphone </s> 2.7642
-1.1761 cellphone bring -0.5769
-1.1761 cellphone burger -0.5905
-1.1761 cellphone from -0.1403
-1.1761 cellphone in -0.1231
-99.9990 cellphone item 0.0239
-0.4357 cellphone to -0.9604
-0.0580 cellular phone -0.1253
-99.9990 centers upon 0.0000
-99.9990 changed my 0.0000
-0.0580 check on -0.8062
-0.2126 cheeseburger </s> 2.8076
-0.4500 cheeseburger to -0.3578
-99.9990 chips </s> 4.0864
-0.1249 chips and -0.4512
-99.9990 choose item 0.0185
-0.0969 choose one -0.6006
-99.9990 chose the 0.0020
-0.0969 city health 0.0969
-99.9990 clean </s> 4.0864
-99.9990 clean rooms 0.4393
-0.1549 clean the -0.8337
-99.9990 clean up 0.2423
-0.1249 clear now 0.5643
-99.9990 clear the 0.0000
-99.9990 clearly marked 0.0000
-0.0969 clerk phd -0.1652
-99.9990 climb the 0.0022
-0.0580 climb up -0.6028
-99.9990 close door 0.1761
-99.9990 closing </s> 4.0864
-99.9990 clothes </s> 4.0864
-99.9990 coca cola 0.0000
-99.9990 cock </s> 4.0864
-0.0969 code </s> 3.4843
-99.9990 code can 0.3838
-0.4140 coffee </s> 1.6300
-0.8973 coffee and -1.6485
-99.9990 coffee as 0.0580
-2.2683 coffee could 0.9661
-1.8704 coffee cup -0.8413
-1.4390 coffee for -0.5164
-2.3933 coffee in 0.0018
-99.9990 coffee instead 0.0000
-2.2683 coffee or -0.4674
-1.5087 coffee please -1.2159
-99.9990 coffee sandwich 0.2099
-2.0923 coffee take -0.2760
-2.2683 coffee then -0.5376
-0.4295 coffee to -1.9129
-99.9990 coffee too 0.0000
-99.9990 coffee works 0.0000
-0.0726 coke </s> 3.0450
-99.9990 coke bing 0.0000
-99.9990 coke to 0.0237
-99.9990 cola </s> 4.0864
-0.0969 collect the -0.5957
-0.5051 color </s> 3.3874
-0.6021 color and -0.5608
-99.9990 color dust 0.9542
-99.9990 color dustbin 0.2688
-0.6021 color this -0.5351
-99.9990 color trolly 0.0000
-99.9990 colored trash 0.0882
-99.9990 column five 0.0522
-0.9542 come </s> 3.6093
-0.8293 come down -0.4881
-99.9990 come sometimes 0.0000
-0.2553 come to -1.1418
-0.8293 come up -0.5694
-0.4260 command </s> 3.6093
-0.3010 command take -0.5971
-0.0792 commands </s> 3.3874
-99.9990 commands help 0.1584
-99.9990 complete a 0.0022
-0.6021 complete all 0.0726
-99.9990 complete task 0.0000
-0.3010 complete the -0.6010
-99.9990 completing this 0.0000
-99.9990 comprehend </s> 4.0864
-99.9990 conference </s> 4.0864
-99.9990 conference i 0.1685
-1.1139 conference in 0.0184
-0.0726 conference room 0.0813
-99.9990 contact her 0.1117
-0.2467 container </s> 2.8559
-1.0000 container in 0.0018
-0.8751 container out -0.4582
-0.7782 container that -0.4286
-99.9990 container to 0.0046
-99.9990 contents of 0.0272
-0.0969 converse with -0.5810
-99.9990 cookies </s> 4.0864
-99.9990 cool drinks 0.2109
-0.0792 cop of -0.4586
-0.0458 correct </s> 3.1322
-99.9990 corridor </s> 4.0864
-99.9990 could try 0.0000
-0.0119 could you -1.1534
-99.9990 course how 0.4150
-99.9990 course not 0.0209
-99.9990 course yes 0.7346
-99.9990 crap </s> 4.0864
-99.9990 crap yes 0.7346
-99.9990 crazy </s> 4.0864
-99.9990 created can 0.3838
-99.9990 credited dialogue 0.0000
-99.9990 cross the 0.0000
-0.6795 cup </s> 2.4736
-1.4472 cup and -0.6801
-1.6902 cup fill -0.1249
-1.5933 cup from -0.2372
-1.6902 cup in -0.1133
-0.2588 cup of -1.2392
-1.0135 cup to -0.9027
-1.4472 cup with -0.8147
-99.9990 current location 0.0000
-0.1249 currently in -0.4760
-99.9990 cut my 0.0000
-99.9990 d </s> 4.0864
-99.9990 d c 0.0000
-99.9990 d i 0.0000
-99.9990 damn food 0.0175
-0.6948 dana </s> 1.4459
-1.9039 dana a -0.1644
-2.8581 dana aircraft 0.4771
-2.3353 dana and -0.5395
-0.2623 dana ballard 0.0223
-3.0342 dana ballard's 0.0000
-3.0342 dana bob 0.2804
-99.9990 dana browns 0.6990
-99.9990 dana but 0.1249
-99.9990 dana calling 0.3522
-99.9990 dana cell 2.1335
-99.9990 dana clerk 0.6990
-2.5571 dana coffee -0.4665
-2.8581 dana dana -0.3792
-2.2939 dana dana's -0.9200
-99.9990 dana five 0.0965
-2.6363 dana food -0.4407
-1.3440 dana foster 1.4868
-3.0342 dana fosters 0.9542
-1.5027 dana green 1.4110
-99.9990 dana hand 0.0669
-99.9990 dana her 0.0081
-3.0342 dana his 0.0362
-2.1592 dana in -0.7596
-2.3353 dana is -0.4618
-2.1891 dana item -0.2958
-2.8581 dana make -0.2368
-2.4902 dana need -0.3483
-1.6540 dana needs 0.0644
-2.0342 dana office -0.7294
-99.9990 dana parker 0.6990
-2.8581 dana parkers 0.4260
-2.5571 dana please -0.7073
-99.9990 dana requested 0.6990
-99.9990 dana requests 0.1761
-2.6363 dana room 0.1497
-1.8301 dana s -0.6958
-2.8581 dana sandwich -0.2672
-2.8581 dana she -0.4221
-2.8581 dana slot -0.3293
-2.8581 dana some -0.2773
-2.8581 dana something 0.0000
-3.0342 dana take 0.0731
-99.9990 dana taking 0.6990
-1.8301 dana the -0.1469
-2.8581 dana three 0.1146
-2.6363 dana to 0.0229
-99.9990 dana trashcan 0.1084
-2.6363 dana want -0.1256
-1.7018 dana wants -0.2269
-2.8581 dana wards 0.6021
-99.9990 dana what 0.0502
-99.9990 dana when 0.3010
-2.2213 dana with -0.1612
-99.9990 dana works 0.1249
-2.6363 dana would 0.0792
-0.3456 dana's </s> 2.5182
-1.6128 dana's and 0.1342
-99.9990 dana's dana 0.0201
-99.9990 dana's for 0.0079
-1.2148 dana's foster -0.2544
-1.4367 dana's in -0.4007
-99.9990 dana's item 0.0201
-1.4367 dana's needs -0.2826
-0.9596 dana's office -0.5146
-1.1357 dana's room -0.4217
-1.4367 dana's s 0.3322
-1.3118 dana's the -0.4741
-99.9990 dana's wanted 0.2730
-1.3118 dana's wants -0.3010
-1.6128 dana's with 0.1172
-0.0918 date book -0.9372
-0.8451 date holder 0.3680
-99.9990 date it 0.0129
-99.9990 dated three 0.0004
-0.4771 day calendar 0.4012
-0.3010 day planner -0.2341
-99.9990 define you 0.0032
-1.5283 deliver </s> 3.4843
-0.8516 deliver a -1.0614
-1.5283 deliver calendar 0.3166
-1.5283 deliver cellphone -0.5721
-1.5283 deliver cheeseburger -0.4117
-99.9990 deliver dana 0.3436
-1.2852 deliver garbage -0.6571
-1.4314 deliver it 0.0336
-0.8516 deliver item -0.8050
-1.5283 deliver number -0.5366
-99.9990 deliver peter 0.3429
-99.9990 deliver ray 0.3436
-1.1303 deliver sandwich -0.3896
-1.5283 deliver slot -0.5149
-1.5283 deliver some -0.5876
-0.5393 deliver the -0.8882
-1.5283 deliver to 0.0070
-99.9990 deliver you 0.0828
-99.9990 delivered in 0.4789
-0.1249 delivered to 0.3360
-0.0969 demise on -0.4004
-0.0969 department worker 0.0969
-99.9990 desert watch 0.0000
-99.9990 design an 0.0000
-99.9990 designed this 0.0000
-0.0248 desk calendar -0.8711
-99.9990 desktop calendar 0.3593
-0.0969 destination room 0.0742
-0.0969 destinations straight -0.3802
-99.9990 destruct </s> 4.0864
-0.0969 device </s> 3.4843
-99.9990 dialogue answer 0.0000
-0.5663 diary </s> 2.8076
-99.9990 diary dana's 0.2606
-1.3680 diary for 0.0241
-0.9420 diary from -0.4414
-0.8451 diary in -0.4632
-1.2430 diary is -0.5925
-1.2430 diary kept -0.0902
-1.2430 diary of -0.5896
-99.9990 diary peter's 0.2606
-99.9990 diary ray's 0.2606
-1.2430 diary so -0.2775
-99.9990 diary there 0.1303
-0.8451 diary to -0.6640
-0.0969 didn't like -0.5643
-99.9990 didn't understand 0.0000
-0.1249 die </s> 3.6093
-99.9990 die of 0.0000
-99.9990 differently dana 0.0010
-99.9990 differently peter 0.0010
-99.9990 differently ray 0.0010
-99.9990 difficult work 0.1139
-99.9990 difficult works 0.1627
-99.9990 directly to 0.0438
-0.2499 director </s> 2.5301
-1.1072 director a -0.6132
-99.9990 director ballard 0.3939
-99.9990 director dana 0.3436
-1.2041 director he -0.3115
-99.9990 director mooney 0.3939
-0.8519 director mr -0.0512
-99.9990 director office 0.3848
-99.9990 director peter 0.3429
-99.9990 director ray 0.3436
-1.5051 director s 0.5752
-99.9990 director stone 0.3939
-99.9990 director wants 0.3010
-0.1091 directory </s> 3.2413
-99.9990 directory for 0.0000
-99.9990 directory no 0.0696
-99.9990 disasters </s> 4.0864
-0.0969 disgruntled employee 0.0969
-99.9990 dishes </s> 4.0864
-99.9990 disney pictures 0.0000
-0.3522 dispose his -0.5705
-0.3522 dispose of -0.5950
-0.0969 distribute before -0.1249
-0.9760 do </s> 2.9725
-1.3909 do a -0.6950
-99.9990 do any 0.0000
-1.4878 do anything -0.5509
-99.9990 do dana 0.3436
-1.4878 do help -0.5845
-99.9990 do household 0.0000
-1.6128 do i 0.0089
-99.9990 do it 0.0201
-99.9990 do know 0.0414
-99.9990 do me 0.0774
-99.9990 do net 0.0000
-0.8595 do not -0.6192
-1.4878 do nothing -0.5551
-99.9990 do peter 0.3429
-99.9990 do ray 0.3436
-99.9990 do some 0.0182
-1.7889 do something 0.0596
-99.9990 do task 0.3590
-1.4878 do that -0.5456
-99.9990 do the 0.0011
-99.9990 do there 0.0000
-1.6128 do this -0.3890
-99.9990 do u 0.0734
-1.4878 do what -0.5221
-0.4271 do you -1.1351
-0.7959 doctor ballard 0.0685
-0.7959 doctor dana -0.2585
-0.7959 doctor mooney 0.0685
-0.7959 doctor peter -0.2592
-99.9990 doctor please 0.0709
-0.7959 doctor ray -0.2585
-0.7959 doctor stone 0.0685
-0.1249 does </s> 3.6093
-99.9990 doesn't answer 0.0000
-0.5643 doing </s> 3.6093
-99.9990 doing my 0.0000
-0.5643 doing now 0.5643
-0.4393 doing some -0.5839
-0.5441 don't bring -0.7722
-99.9990 don't english 0.0000
-0.7202 don't have -0.5481
-0.7202 don't know -0.5027
-0.7202 don't need -0.4679
-99.9990 don't really 0.0000
-99.9990 don't walk 0.0000
-0.0969 done </s> 3.4843
-0.4771 door </s> 3.2413
-99.9990 door and 0.0000
-0.4771 door down -0.5093
-0.8451 door for 0.2460
-99.9990 door in 0.0032
-99.9990 door please 0.0000
-99.9990 door to 0.0201
-99.9990 doritos and 0.0259
-99.9990 dot no 0.2095
-0.9379 down </s> 3.6093
-99.9990 down relax 0.0000
-0.2688 down the -0.6572
-0.6368 down to 0.1362
-99.9990 down you 0.0014
-99.9990 down your 0.0000
-99.9990 downstairs </s> 4.0864
-0.5356 dr ballard -0.3636
-2.0054 dr ballard's 0.1597
-1.5283 dr dana -0.7356
-99.9990 dr dana's 0.0330
-0.5356 dr mooney -0.3636
-2.0054 dr mooney's 0.1597
-1.5283 dr peter -0.7363
-99.9990 dr peter's 0.0330
-1.5283 dr ray -0.7356
-99.9990 dr ray's 0.0330
-0.5356 dr stone -0.3636
-2.0054 dr stone's 0.1597
-0.3392 drink </s> 2.1469
-0.8638 drink and -1.1384
-99.9990 drink come 0.3522
-99.9990 drink cup 0.0158
-99.9990 drink disasters 0.0000
-99.9990 drink from 0.4617
-99.9990 drink in 0.4789
-99.9990 drink items 0.0000
-1.4337 drink take -0.8014
-99.9990 drink that 0.2704
-0.5306 drink to -0.9426
-1.6767 drink walk -0.5948
-1.8016 drink water -0.2382
-99.9990 drinking beverages 0.0000
-99.9990 drinking water 0.2389
-0.4150 drinks </s> 3.3874
-0.2688 drinks to 0.1304
-99.9990 driving me 0.0000
-0.0969 dropped it -0.5981
-0.0969 drowsiness </s> 3.4843
-0.4075 drowsy </s> 3.1322
-0.7597 drowsy assist -0.5319
-0.6628 drowsy i -0.5305
-0.7597 drowsy see -0.5531
-99.9990 duh </s> 4.0864
-0.1249 dumb </s> 3.6093
-0.1249 dumpster </s> 3.6093
-99.9990 dust </s> 4.0864
-0.0512 dust bin -0.6566
-0.3358 dustbin </s> 2.8311
-1.1139 dustbin for 0.2460
-99.9990 dustbin four 0.0000
-99.9990 dustbin out 0.0348
-0.3869 dustbin to -0.2108
-99.9990 dustbins </s> 4.0864
-0.0969 dysfunctional little 0.0969
-1.1461 e </s> 3.6093
-99.9990 e a 0.0000
-1.0212 e ballard -0.5970
-1.0212 e mooney -0.5970
-99.9990 e n 0.0424
-0.3680 e r -0.5185
-99.9990 e room 0.0514
-99.9990 e s 0.0000
-1.0212 e stone -0.5970
-0.9243 e three -0.4728
-99.9990 earn money 0.6021
-0.1058 eat </s> 2.6240
-1.0911 eat cake 0.1249
-1.0911 eat for 0.2460
-99.9990 eat some 0.0996
-99.9990 eat the 0.0080
-0.1249 eating </s> 3.6093
-99.9990 education </s> 4.0864
-0.1575 eight </s> 1.8239
-99.9990 eight a 0.0022
-1.3060 eight and -1.0903
-1.9428 eight as 0.0000
-99.9990 eight bob 0.2420
-99.9990 eight calling 0.0000
-1.6418 eight dana -0.4346
-1.8179 eight for -0.5820
-1.8179 eight is -0.5826
-99.9990 eight mean 0.0000
-1.8179 eight needs -0.4076
-99.9990 eight now 1.0414
-99.9990 eight one 0.0127
-1.6418 eight peter -0.4353
-1.3786 eight r -0.9445
-1.6418 eight ray -0.4346
-99.9990 eight take 0.1565
-1.5169 eight to -0.9000
-1.8179 eight wants 0.0000
-1.8179 eight your -0.5908
-99.9990 electrical device 0.6990
-99.9990 email </s> 4.0864
-0.0969 employee who -0.3468
-99.9990 empty dana 0.3436
-0.5119 empty his -0.5705
-99.9990 empty it 0.0201
-99.9990 empty peter 0.3429
-99.9990 empty ray 0.3436
-0.5119 empty the -0.5841
-99.9990 empty trash 0.0882
-99.9990 english very 0.0000
-99.9990 enter it 0.0000
-99.9990 enter office 0.0435
-99.9990 error </s> 4.0864
-0.1249 es </s> 3.6093
-0.2620 eve </s> 2.2802
-99.9990 eve a 0.0429
-1.5911 eve an -0.0212
-99.9990 eve at 0.1083
-1.5911 eve ballard -0.0770
-99.9990 eve in 0.0025
-1.4661 eve is -0.2204
-1.5911 eve item -0.3834
-1.5911 eve mooney -0.0770
-1.3692 eve needs 0.2004
-99.9990 eve please 0.0709
-99.9990 eve room 0.0514
-1.3692 eve s 0.4114
-99.9990 eve she 0.0550
-1.7672 eve some 0.1999
-99.9990 eve something 0.4771
-1.5911 eve stone -0.0770
-1.5911 eve the -0.3428
-99.9990 eve to 0.0010
-1.2900 eve wants -0.3954
-1.7672 eve with 0.1210
-1.5911 eve would 0.3010
-99.9990 everywhere take 0.0364
-99.9990 eves room 0.0514
-0.1249 exactly </s> 3.6093
-99.9990 exit </s> 4.0864
-99.9990 experimental military 0.0000
-99.9990 explain the 0.0157
-0.0969 explain you -0.5101
-99.9990 f e 0.2430
-0.5051 f f -0.5362
-0.5051 f i -0.6822
-0.6021 f r -0.5721
-99.9990 f t 0.0337
-99.9990 fares </s> 4.0864
-99.9990 fast as 0.0000
-0.3010 favor </s> 3.3874
-0.3979 favor for 0.2600
-99.9990 favor from 0.0136
-0.0969 fed up -0.5893
-99.9990 feed dana 0.3436
-99.9990 feed lab 0.1583
-99.9990 feed peter 0.3429
-99.9990 feed ray 0.3436
-99.9990 feed the 0.0109
-0.0512 feel better 0.0512
-99.9990 feel good 0.3979
-0.3129 feeling drowsy 0.1065
-1.0911 feeling hungry 0.4705
-0.9661 feeling sleepy -0.3468
-0.9661 feeling take -0.6006
-0.7231 feeling thirsty -0.3222
-0.0969 feelings away 0.0969
-99.9990 fetch item 0.2482
-99.9990 fetch mobile 0.1622
-0.1249 fetch the -0.7546
-0.0792 few loaves 0.0792
-0.9031 file </s> 3.6093
-0.4260 file from -0.4925
-0.7782 file in -0.1231
-99.9990 file please 0.0000
-0.5351 file to -0.4642
-99.9990 files </s> 4.0864
-0.3522 files for -0.5820
-99.9990 files ready 0.0000
-0.4771 files to -0.4763
-0.5740 fill it -0.5981
-0.1761 fill the -0.9865
-99.9990 film s 0.0000
-99.9990 fin out 0.0348
-99.9990 find bob 0.2420
-1.2553 find coffee -0.2657
-0.6910 find dana -0.4417
-1.2553 find eve -0.1332
-1.2553 find food -0.2188
-99.9990 find lab 0.1508
-99.9990 find out 0.0348
-99.9990 find peanut 1.3979
-0.6910 find peter -0.4435
-0.6910 find ray -0.4417
-99.9990 find room 0.5705
-99.9990 find the 0.0000
-1.4314 find water 0.4297
-1.1303 find where -0.5740
-99.9990 fine </s> 4.0864
-99.9990 finish some 0.0182
-0.5643 first </s> 3.6093
-99.9990 first aid 0.0000
-99.9990 first floor 0.3411
-0.4393 first her -0.5878
-99.9990 first item 0.0126
-99.9990 first you 0.0206
-99.9990 firstly go 0.8982
-0.7007 five </s> 1.6765
-2.5085 five a -0.5927
-1.3182 five and -1.2922
-2.5085 five available -0.4260
-99.9990 five eight 0.0000
-1.7304 five for -0.4925
-99.9990 five four 0.0240
-99.9990 five get 0.0000
-2.8096 five is 0.0282
-2.1563 five item -0.6285
-0.4142 five one -2.2525
-99.9990 five p 0.0000
-2.5085 five please -0.5312
-99.9990 five slots 0.0000
-99.9990 five spring 0.0000
-2.1563 five t -0.8764
-2.2655 five take -0.8037
-2.5085 five then -0.4184
-0.9462 five to -0.8390
-2.8096 five two 0.4112
-99.9990 five wants 0.0580
-2.5085 five y 0.0969
-0.7161 five zero -1.8792
-0.0969 fix an -0.5721
-99.9990 fix the 0.0000
-99.9990 flamethrower </s> 4.0864
-99.9990 flight from 0.0000
-99.9990 flip phone 0.1888
-0.2643 floor </s> 2.5182
-1.2304 floor and -0.5848
-99.9990 floor for 0.0221
-0.9874 floor is -0.8080
-0.9294 floor n -0.4157
-99.9990 floor no 0.0696
-1.0544 floor of -0.7675
-99.9990 floor only 0.0000
-1.3554 floor that -0.4441
-99.9990 folder </s> 4.0864
-0.0300 follow me -0.9258
-99.9990 follow what 0.0263
-0.3485 food </s> 2.1274
-0.8925 food and -1.3193
-1.7054 food can -0.2183
-99.9990 food do 0.2034
-1.4044 food for 0.3420
-1.7054 food from -0.5370
-1.4044 food in -0.4242
-1.7054 food item -0.5830
-99.9990 food items 0.2004
-99.9990 food sandwich 0.0073
-1.7054 food take -0.5607
-0.5999 food to -1.0327
-2.0453 for a 0.0473
-1.7443 for ballard -0.2082
-99.9990 for coffee 0.2114
-0.8412 for dana -0.8192
-99.9990 for dana's 0.2606
-1.7443 for doing -0.4058
-1.3464 for dr -0.1001
-1.8692 for eve -0.1332
-99.9990 for five 0.0965
-1.6474 for help -0.5406
-1.8692 for her -0.3654
-1.7443 for him -0.3010
-1.5013 for instructions -0.4649
-1.7443 for item -0.3538
-2.0453 for lab 0.3715
-1.7443 for me -0.4621
-1.7443 for mooney -0.2082
-1.2324 for mr -0.9269
-1.8692 for ms 0.0000
-99.9990 for one 0.0000
-99.9990 for people 0.1761
-0.8412 for peter -0.8215
-99.9990 for peter's 0.2606
-99.9990 for petty 0.0000
-99.9990 for pizza 0.6990
-0.8412 for ray -0.8192
-99.9990 for ray's 0.2606
-2.0453 for room 0.5705
-99.9990 for rooms 0.0000
-1.7443 for something -0.5360
-1.7443 for stone -0.2082
-1.8692 for supervisor -0.1872
-1.3050 for the -0.5178
-2.0453 for three 0.2279
-1.5682 for to 0.0366
-1.3050 for you -0.8468
-99.9990 for your 0.3181
-99.9990 forget that 0.0000
-99.9990 form the 0.1280
-0.1249 forward </s> 3.6093
-0.2337 foster </s> 1.7964
-1.6786 foster and -0.8014
-1.9217 foster at -0.4937
-1.9217 foster bring -0.5221
-1.9217 foster do -0.3986
-1.9217 foster give -0.5902
-1.1813 foster in -1.2542
-1.9217 foster is -0.5531
-1.0324 foster needs -0.8325
-1.5237 foster office -0.6099
-1.9217 foster room -0.0316
-1.2450 foster s -0.7035
-1.9217 foster thank 0.7959
-2.0466 foster to 0.3360
-1.6786 foster wanted -0.2711
-1.6786 foster wants -0.4191
-1.9217 foster will -0.5494
-0.3522 fosters office -0.2173
-0.3522 fosters room -0.5506
-0.5486 four </s> 1.3831
-2.2105 four a -1.0352
-1.6721 four and -1.3585
-1.7748 four b -0.4545
-2.6498 four can -0.2183
-2.6498 four dana -0.2585
-99.9990 four do 0.2034
-99.9990 four eve 0.3439
-1.9509 four for -0.7328
-2.1058 four four -0.9970
-2.5529 four from -0.6542
-99.9990 four g 0.0000
-2.4068 four has -0.6146
-99.9990 four her 0.0185
-99.9990 four i 0.1685
-2.4068 four in -0.3662
-99.9990 four is 0.0060
-99.9990 four item 0.0126
-2.7748 four lab 0.0000
-2.6498 four needs -0.5418
-0.6104 four one -2.1450
-99.9990 four out 0.0348
-2.6498 four peter -0.2592
-2.4737 four please -0.6835
-2.6498 four ray -0.2585
-99.9990 four room 0.0000
-99.9990 four she 0.1181
-2.7748 four six 0.1487
-99.9990 four slot 0.0067
-2.7748 four t -0.3992
-99.9990 four that 0.2704
-2.5529 four the -0.5615
-0.9297 four three -2.2755
-2.6498 four till -0.2218
-0.9731 four to -1.2321
-1.2696 four two -1.4441
-2.7748 four where -0.4491
-2.6498 four which -0.3010
-99.9990 four with 0.0119
-1.0729 four zero -2.0536
-0.2218 fourth item -0.6025
-0.4771 fourth slot -0.3898
-99.9990 free now 1.0414
-99.9990 fresh </s> 4.0864
-99.9990 friend </s> 4.0864
-1.6857 from all -0.1871
-99.9990 from amazon 0.0000
-99.9990 from austin 0.0000
-99.9990 from completing 0.0000
-99.9990 from current 0.0000
-1.8107 from dana 0.6859
-1.6857 from drowsiness 0.0969
-99.9990 from good 0.0000
-1.6857 from him -0.5876
-99.9990 from item 0.0542
-1.3847 from items -0.7027
-1.6857 from me -0.5746
-1.8107 from peter 0.6836
-1.8107 from ray 0.6859
-0.1840 from slot -0.6939
-1.0090 from the -1.2642
-99.9990 from where 0.0185
-99.9990 from within 0.6990
-1.5097 from you -0.6879
-99.9990 from your 0.0056
-0.5441 fuck </s> 3.4843
-99.9990 fuck fuck 0.1461
-99.9990 fuck the 0.0060
-99.9990 fuck u 0.0969
-0.3680 fuck you -0.6879
-99.9990 fuck yourself 0.5051
-99.9990 fucker </s> 4.0864
-99.9990 fucking hamburger 0.2384
-0.0969 fucking trashcan -0.1990
-0.0580 full of -0.8026
-99.9990 furniture </s> 4.0864
-99.9990 further instruct 0.0000
-0.1249 further instructed 0.0669
-99.9990 further instructions 0.1761
-99.9990 g d 0.0000
-99.9990 g t 0.0000
-0.7231 garbage </s> 2.9403
-0.5905 garbage bin -0.4051
-0.3507 garbage can -1.3570
-99.9990 garbage container 0.0000
-1.0241 garbage to -0.5091
-0.0969 gather burger -0.5905
-99.9990 get </s> 4.0864
-0.9626 get a -0.7576
-2.4609 get an 0.4559
-99.9990 get beverage 0.1249
-99.9990 get book 0.1493
-2.1599 get burger -0.3287
-1.9168 get calendar -0.6568
-2.2848 get cell 1.6564
-1.1491 get coffee -0.4584
-2.1599 get cup -0.5001
-1.3306 get dana -0.4521
-99.9990 get diary 0.1375
-2.2848 get doctor 0.2840
-99.9990 get drinks 0.2109
-99.9990 get first 0.0000
-99.9990 get five 0.0965
-1.5067 get food -0.8170
-99.9990 get for 0.0221
-2.0630 get hamburger -0.4198
-1.7205 get her -0.6208
-2.1599 get him -0.5069
-2.0630 get it -0.6950
-0.8698 get item -0.9366
-2.0630 get lost 0.0792
-1.6158 get me -0.3789
-1.9168 get mobile -0.5497
-99.9990 get number 0.1221
-2.1599 get one -0.5652
-99.9990 get peanut 1.3979
-1.3306 get peter -0.4544
-99.9990 get phone 0.1888
-1.3306 get ray -0.4521
-99.9990 get rooms 0.0000
-1.9168 get sandwich -0.6232
-2.1599 get slot 0.4641
-1.9838 get some -0.0780
-1.8077 get something -0.2663
-0.5315 get the -0.8090
-2.4609 get there 0.1761
-2.0630 get three -0.6622
-99.9990 get to 0.0031
-99.9990 get trash 0.3751
-99.9990 get water 0.2389
-99.9990 get you 0.0000
-99.9990 give </s> 4.0864
-1.8175 give a -1.0362
-2.4543 give ballard -0.4635
-2.3294 give blue -0.5535
-2.4543 give bob -0.4599
-2.2325 give book -0.4058
-99.9990 give bread 0.1891
-2.0284 give cell 1.2304
-99.9990 give cellphone 0.0000
-1.5890 give coffee -0.7175
-1.0564 give dana -0.7226
-2.4543 give doctor 0.2840
-1.9772 give dr 0.9542
-2.3294 give drink -0.4504
-1.8901 give eve -0.6975
-99.9990 give first 0.0000
-99.9990 give five 0.0522
-1.8901 give food -0.8343
-2.2325 give four -0.6501
-1.4263 give her -1.3855
-1.5697 give him -0.6959
-0.7356 give it -1.4471
-1.0926 give item -1.0065
-2.3294 give juice 0.0000
-1.8901 give me -0.0972
-2.1533 give mobile -0.4102
-2.4543 give mooney -0.4635
-99.9990 give number 0.1221
-2.3294 give one -0.5652
-2.3294 give paper -0.4559
-1.0564 give peter -0.7248
-99.9990 give phone 0.2651
-1.0564 give ray -0.7226
-1.9315 give sandwich -0.7984
-2.6304 give secretary 0.3135
-1.9772 give slot -0.0677
-1.9315 give some -0.8630
-2.4543 give stone -0.4635
-2.4543 give supervisor -0.4634
-2.6304 give tea 1.2041
-0.8277 give the -1.7843
-99.9990 give this 0.0000
-2.6304 give three 0.2125
-1.3633 give to -0.5593
-99.9990 give two 0.0473
-99.9990 give up 0.0327
-99.9990 giving her 0.0291
-0.0458 giving you -0.6471
-0.9138 glass </s> 3.3874
-1.0107 glass and -0.5966
-1.0107 glass from -0.5930
-0.7677 glass full 0.0580
-1.0107 glass in -0.6006
-0.6585 glass of -0.9118
-0.7677 glass to -0.5016
-99.9990 glass water 0.2389
-2.1430 go </s> 2.9403
-1.6557 go and -0.6116
-2.8120 go assist 0.3347
-2.6871 go check 0.3010
-99.9990 go dana 0.0040
-99.9990 go directly 0.0000
-2.8120 go down 0.4607
-99.9990 go downstairs 0.0000
-2.5902 go find 0.2553
-99.9990 go forward 0.6021
-99.9990 go fuck 0.0000
-1.7451 go get -0.4088
-2.8120 go give 0.1328
-99.9990 go go 0.0007
-2.8120 go help 0.1389
-99.9990 go his 0.4685
-99.9990 go home 0.6021
-2.6871 go immediately 0.0969
-99.9990 go inside 0.0000
-99.9990 go meet 0.0000
-99.9990 go mother 0.0000
-99.9990 go my 0.1814
-99.9990 go n 0.4873
-99.9990 go near 0.0000
-2.8120 go now 0.5643
-2.4440 go o -0.8158
-2.9881 go out 0.1439
-99.9990 go over 0.7597
-99.9990 go peter 0.0040
-2.6871 go pick 0.0072
-99.9990 go ray 0.0040
-99.9990 go right 0.0000
-2.4440 go room -0.8007
-2.6871 go second -0.3010
-1.7094 go see -0.2996
-2.9881 go straight 0.2218
-2.8120 go t 0.0000
-2.5902 go take -0.5425
-2.6871 go talk 0.1303
-2.8120 go the -0.4614
-2.2100 go there -0.2846
-2.8120 go three -0.2509
-0.0587 go to -1.1927
-2.2891 go walk -0.2113
-2.6871 go with -0.5810
-0.1249 goal </s> 3.6093
-99.9990 goals </s> 4.0864
-0.1249 goals you -0.4610
-0.0669 going to -0.7336
-0.1249 goo to 0.3360
-0.2218 good </s> 3.6093
-99.9990 good business 0.0000
-99.9990 good springs 0.0000
-99.9990 got to 0.0438
-0.1761 goto room 0.6763
-99.9990 goto three 0.1792
-99.9990 gps navigation 0.0000
-0.8129 grab a -0.5163
-99.9990 grab an 0.4559
-0.9379 grab coffee -0.2657
-0.9379 grab cup -0.3752
-99.9990 grab item 0.0347
-0.9379 grab sandwich -0.2672
-99.9990 grab slot 0.0535
-0.4150 grab the -0.3471
-0.2686 green </s> 2.0145
-1.7384 green an -0.5721
-1.7384 green from -0.5573
-1.3404 green in -0.9235
-1.3404 green intern -0.3827
-1.7384 green is -0.5925
-1.7384 green meet -0.5673
-0.9980 green needs -0.9880
-1.2265 green office -0.6713
-1.7384 green s -0.0268
-1.7384 green the -0.6004
-1.7384 green want -0.5839
-1.2265 green wants -0.6525
-1.7384 green with -0.5902
-0.0969 ground floor -0.2609
-0.1249 guess she -0.4613
-0.2218 guest </s> 3.6093
-99.9990 guest by 0.0000
-99.9990 guest to 0.0000
-0.4472 h available -0.6612
-0.3680 h item -0.7645
-99.9990 h lab 0.1508
-99.9990 h person 0.3010
-99.9990 h slot 0.0067
-0.0969 had hung 0.0969
-0.1249 hal </s> 3.6093
-0.4472 hall </s> 3.3874
-0.5441 hall and -0.5971
-99.9990 hall from 0.0000
-0.5441 hall to 0.3809
-0.0872 hallway </s> 3.1322
-99.9990 hallway past 0.0000
-99.9990 hallway to 0.0438
-0.0969 ham burger -0.4994
-99.9990 ham sandwich 0.0031
-0.3743 hamburger </s> 2.3962
-1.2194 hamburger and -0.7205
-1.5873 hamburger bring 0.0871
-1.4624 hamburger from -0.1403
-1.2863 hamburger in -0.2992
-99.9990 hamburger is 0.0036
-99.9990 hamburger please 0.0709
-1.7634 hamburger the 0.1338
-0.4310 hamburger to -1.2431
-99.9990 hammer he 0.0000
-0.9700 hand </s> 3.6093
-99.9990 hand and 0.0162
-99.9990 hand dana 0.0055
-99.9990 hand down 0.0532
-0.8451 hand her -0.5348
-1.1461 hand in 0.5368
-0.3010 hand it -0.4588
-99.9990 hand peter 0.0054
-99.9990 hand ray 0.0055
-99.9990 handheld device 0.6990
-0.0969 handle the -0.5986
-0.2341 handover his -0.3222
-0.4771 handover the -0.5957
-0.0969 hands and -0.5899
-99.9990 happened you 0.0000
-99.9990 has a 0.0000
-0.3854 has an -0.3892
-0.6284 has something -0.5425
-0.5315 has to -0.3909
-99.9990 hath created 0.0000
-1.4094 have </s> 3.6093
-0.9322 have a -0.0470
-1.4094 have access 0.1249
-1.2844 have any -0.4058
-99.9990 have available 0.1249
-99.9990 have coffee 0.2114
-99.9990 have five 0.0000
-99.9990 have issued 0.0000
-1.2844 have item -0.5479
-99.9990 have pizza 0.6990
-1.4094 have the 0.1566
-0.2333 have to -1.1589
-99.9990 have water 0.0000
-99.9990 haven't asked 0.0000
-99.9990 he </s> 4.0864
-1.3118 he dropped 0.0969
-1.3118 he has -0.4856
-0.7999 he is -0.9215
-1.4367 he just 0.0000
-0.3118 he needs -0.3916
-1.3118 he s -0.5972
-99.9990 he say 0.6990
-99.9990 he suddenly 0.0000
-1.3118 he wants -0.2307
-1.1357 he will -0.6654
-99.9990 he would 0.7782
-99.9990 head </s> 4.0864
-99.9990 head up 0.0259
-0.0969 health department 0.0969
-0.0969 heard the -0.5939
-0.0969 hell </s> 3.4843
-0.2430 hello </s> 3.1833
-99.9990 hello go 0.8982
-99.9990 hello robot 0.0352
-0.5441 hello take -0.5967
-0.5149 help </s> 2.1999
-2.1004 help ballard 0.4001
-1.7993 help could 0.9661
-1.0397 help dana -0.6579
-1.7993 help eve -0.2581
-99.9990 help find 0.0000
-1.7993 help from -0.5884
-1.4014 help go -0.1018
-1.4983 help her -0.4771
-99.9990 help him 0.3010
-1.4983 help in -0.5256
-99.9990 help is 0.0000
-99.9990 help lab 0.1583
-1.3222 help me -0.2418
-2.1004 help mooney 0.4001
-99.9990 help needed 0.0969
-99.9990 help office 0.3848
-1.0397 help peter -0.6603
-1.2875 help please -0.9906
-1.0397 help ray -0.6579
-1.7993 help send -0.4650
-1.7993 help she -0.4840
-1.7993 help so -0.4994
-2.1004 help stone 0.4001
-2.1004 help the 0.0116
-1.4014 help to -0.9962
-1.9243 help u -0.3802
-1.7993 help you -0.5815
-0.6443 her </s> 2.3962
-1.2205 her a -0.4590
-99.9990 her an 0.4559
-99.9990 her and 0.0000
-1.7324 her anything -0.4260
-99.9990 her by 0.0000
-1.7324 her calendar -0.2427
-1.1883 her coffee -0.8344
-1.7324 her desk 0.6532
-1.6355 her feel 0.2553
-1.8573 her food -0.2188
-99.9990 her instructions 0.1761
-1.4894 her item -0.7671
-1.4894 her name -0.6467
-1.6355 her o -0.6747
-0.7663 her office -1.0446
-1.6355 her please -0.6281
-1.3802 her room -0.5676
-1.6355 her some -0.3286
-1.6355 her something -0.2218
-99.9990 her that 0.0273
-0.8431 her the -1.3061
-1.7324 her to -0.6018
-99.9990 here </s> 4.0864
-0.5441 here a 0.0053
-0.2430 here s -0.5972
-99.9990 hey go 0.8982
-0.3010 hi </s> 3.1833
-99.9990 hi robot 0.0300
-0.7270 hi what -0.3793
-0.6021 hi would -0.5336
-99.9990 hide it 0.0201
-99.9990 high profile 0.0000
-99.9990 hill parkway 0.0000
-0.3010 him </s> 2.3011
-0.8559 him a -0.4242
-99.9990 him and 0.0066
-1.4843 him at -0.1627
-99.9990 him burger 0.2325
-1.4843 him casually 0.0969
-1.4843 him coffee -0.3906
-1.2413 him food -0.5868
-99.9990 him he 0.0330
-99.9990 him in 0.0765
-1.6092 him item -0.3957
-99.9990 him mobile 0.1622
-99.9990 him nothing 0.0348
-1.4843 him please -0.5312
-1.4843 him some -0.5876
-1.4843 him something -0.1249
-1.4843 him the -0.5906
-1.3979 his calendar -0.2427
-1.5229 his cell 1.6564
-1.3979 his diary -0.4645
-1.3979 his name -0.4867
-0.1805 his office -1.3424
-99.9990 his personal 0.6990
-1.3979 his planner -0.5103
-1.5229 his room 0.0537
-1.3979 his supervisor -0.3121
-1.1549 his trash -0.6817
-99.9990 hit </s> 4.0864
-99.9990 hmm </s> 4.0864
-0.0669 holder </s> 3.3082
-99.9990 holy crap 0.0000
-0.1249 home </s> 3.6093
-99.9990 hopeless </s> 4.0864
-99.9990 household tours 0.0000
-0.9379 how are -0.1399
-0.9379 how can -0.0661
-99.9990 how come 0.0000
-99.9990 how do 0.0107
-99.9990 how i 0.0033
-0.2109 how to -0.4186
-99.9990 how will 0.2218
-99.9990 huh </s> 4.0864
-0.0969 hung up -0.5893
-0.2566 hungry </s> 2.5301
-1.1139 hungry can -0.3152
-1.2109 hungry could 0.9661
-0.9678 hungry give -0.8162
-99.9990 hungry i 0.1312
-0.9678 hungry please -0.7168
-1.1139 hungry serve -0.4949
-0.8484 i am 0.0000
-99.9990 i asking 0.0000
-99.9990 i be 0.0000
-1.4205 i c -0.7501
-99.9990 i can 0.0110
-2.2956 i cannot 0.0000
-1.8976 i cant 0.2553
-99.9990 i could 0.0000
-2.1195 i do 0.1214
-99.9990 i doing 0.1383
-1.6935 i don't -0.6948
-99.9990 i dot 0.0000
-1.8976 i get 0.1860
-99.9990 i give 0.0000
-2.1195 i go 0.4211
-2.1195 i guess 0.1249
-1.8976 i have 0.0262
-99.9990 i haven't 0.0000
-99.9990 i help 0.1584
-2.2956 i just 0.0000
-2.2956 i know 0.0414
-99.9990 i m 0.0000
-2.1195 i mistyped 0.0000
-99.9990 i move 0.0000
-0.4928 i need -0.1728
-99.9990 i needing 0.0000
-99.9990 i purchase 0.0000
-99.9990 i rectify 0.0000
-2.1195 i reword 0.0669
-2.1195 i s -0.4674
-1.8976 i said 0.0792
-99.9990 i say 0.6990
-1.9945 i think -0.0792
-99.9990 i try 0.4771
-2.1195 i type 0.3010
-99.9990 i wanna 0.0000
-0.5838 i want -0.2385
-2.1195 i wanted -0.3802
-99.9990 i was 0.0000
-2.1195 i will 0.0527
-1.5966 i would -0.2218
-99.9990 i x 0.0000
-0.6232 i'm asking -0.3188
-99.9990 i'm done 0.6990
-0.6232 i'm giving 0.3010
-99.9990 i'm not 0.0209
-99.9990 i'm sorry 0.0000
-0.4191 i'm telling 0.4949
-0.0969 id hungry -0.2515
-99.9990 identified by 0.0000
-99.9990 idiot or 0.0000
-99.9990 if anyone 0.0000
-99.9990 if dana 0.3436
-0.3617 if he -0.7094
-99.9990 if peter 0.3429
-99.9990 if ray 0.3436
-0.6628 if that -0.4286
-0.7597 if you -0.5988
-99.9990 ignore it 0.0201
-99.9990 iii floor 0.3411
-0.0969 immediately to -0.5583
-2.6049 in </s> 3.6093
-99.9990 in a 0.0022
-99.9990 in blue 0.0330
-2.2370 in color -0.4861
-99.9990 in column 0.0000
-99.9990 in conference 0.8129
-99.9990 in dustbin 0.2688
-2.3831 in four -0.5546
-2.2370 in her -0.7411
-1.7019 in his -0.9117
-2.4800 in it -0.5981
-99.9990 in making 0.0000
-99.9990 in my 0.1814
-2.0821 in need -0.9813
-2.0821 in office -0.9565
-99.9990 in road 0.6021
-99.9990 in robot 0.1314
-0.7920 in room -1.5247
-1.8268 in s -1.2331
-0.1752 in slot -0.9804
-99.9990 in slots 0.2041
-2.1790 in that -0.8466
-1.3831 in the -0.9139
-99.9990 in there 0.1761
-1.6507 in three -0.6775
-2.0821 in to -0.6619
-99.9990 in war 0.0000
-99.9990 in windows 0.0000
-99.9990 in yea 0.7782
-2.1278 in your -0.9225
-99.9990 information abut 0.0000
-99.9990 information to 0.0008
-99.9990 injured in 0.0000
-0.0792 inside of -0.6792
-99.9990 inside three 0.1792
-99.9990 instead </s> 4.0864
-99.9990 instruct you 0.0902
-0.0669 instructed </s> 3.3082
-0.0792 instructing you -0.6162
-0.4771 instructions </s> 3.4843
-0.2341 instructions from -0.8245
-99.9990 instructions read 0.0000
-99.9990 intelligent robot 0.0000
-0.2319 intern </s> 2.8559
-99.9990 intern dana 0.0139
-0.8603 intern in -0.5256
-0.7634 intern needs -0.6767
-99.9990 intern peter 0.0138
-99.9990 intern ray 0.0139
-99.9990 into a 0.0000
-99.9990 into room 0.5705
-0.3010 into slot -0.4542
-99.9990 into the 0.0018
-99.9990 into three 0.2262
-99.9990 inventory </s> 4.0864
-99.9990 involve in 0.0098
-1.4843 is </s> 3.0072
-1.5221 is a -0.3249
-1.5635 is an -0.4523
-1.9614 is asking -0.2218
-1.9614 is at -0.1627
-1.4495 is available -0.7672
-99.9990 is below 0.1383
-1.8645 is beside 0.0792
-2.0864 is best 0.1249
-1.7184 is blue -0.8197
-99.9990 is clearly 0.0000
-1.9614 is coffee -0.3849
-1.9614 is correct 0.3979
-1.5635 is dana -0.4003
-1.9614 is diary -0.5765
-99.9990 is eve 0.3439
-1.0864 is feeling 0.0911
-1.7853 is for -0.0339
-99.9990 is four 0.1443
-99.9990 is he 0.0000
-99.9990 is hopeless 0.0000
-0.8311 is hungry 0.0805
-0.9724 is in -0.5845
-99.9990 is it 0.0201
-2.2625 is item 0.0548
-1.6604 is kept 0.2109
-99.9990 is located 0.0000
-99.9990 is my 0.0000
-99.9990 is needed 0.0969
-2.0864 is not 0.0138
-1.9614 is number -0.3502
-99.9990 is on 0.2016
-1.5635 is peter -0.4021
-1.5635 is ray -0.4003
-99.9990 is really 0.0000
-2.0864 is right 0.0458
-2.0864 is room 0.0934
-1.9614 is sleepy -0.3468
-99.9990 is struck 0.0000
-1.9614 is that -0.5859
-1.3594 is the -0.3488
-1.5635 is there -0.0805
-99.9990 is thirst 0.0000
-1.2847 is thirsty -0.5006
-99.9990 is this 0.0881
-1.7853 is three -0.1864
-1.9614 is tired 0.0969
-1.6604 is waiting 0.0969
-99.9990 is water 0.2389
-1.8645 is what 0.0381
-1.9614 is where 0.1761
-99.9990 is will 0.0256
-1.7853 is your -0.7523
-99.9990 isn't can 0.0110
-99.9990 issued you 0.0007
-1.3454 it </s> 2.7854
-1.4423 it and -1.0632
-2.0443 it any -0.4638
-99.9990 it dana 0.0012
-99.9990 it does 0.6021
-99.9990 it doesn't 0.0000
-2.0443 it fill -0.4674
-2.0443 it for -0.5881
-99.9990 it from 0.0183
-2.0443 it in -0.5803
-2.0443 it into -0.3010
-1.5325 it is -0.4576
-2.0443 it next 0.0000
-99.9990 it once 0.0000
-1.6050 it over -0.2817
-99.9990 it peter 0.0012
-99.9990 it ray 0.0012
-99.9990 it robot 0.1314
-99.9990 it the 0.0004
-2.1693 it ti 0.8451
-0.1136 it to -1.1356
-2.0443 it up -0.5893
-99.9990 it what 0.0148
-99.9990 it will 0.0000
-1.5438 item </s> 2.4052
-2.2251 item and -0.8390
-2.6230 item appears 0.0969
-99.9990 item at 0.4393
-2.6230 item available -0.3680
-99.9990 item blue 0.0330
-99.9990 item day 0.1761
-2.6230 item diary -0.5351
-1.1145 item five -1.9025
-0.9306 item four -2.0533
-1.3677 item from -0.7309
-2.6230 item give -0.5138
-0.3611 item in -1.9462
-2.2708 item is -0.8986
-99.9990 item mobile 0.1622
-2.7479 item n 0.0102
-1.4616 item no -1.6394
-1.3386 item number -0.4886
-2.6230 item of -0.5749
-1.3442 item one -1.7929
-2.3800 item out -0.7012
-2.7479 item slot -0.2642
-99.9990 item take 0.0414
-1.8448 item that -1.0105
-2.6230 item the -0.6008
-1.2708 item three -1.8897
-1.6123 item to -0.4973
-1.3800 item two -0.8925
-99.9990 item which 0.3010
-2.6230 item within 0.0969
-0.7085 items </s> 3.1322
-0.8177 items are -0.7896
-0.4323 items available -0.3274
-1.0607 items do -0.3986
-99.9990 items for 0.0000
-99.9990 items in 0.0000
-1.1856 items to 0.3360
-1.0607 items with -0.5556
-99.9990 its door 0.1761
-99.9990 its opening 0.0000
-99.9990 its three 0.2262
-99.9990 java </s> 4.0864
-0.0300 jelly sandwich 0.0000
-99.9990 job done 0.6990
-0.1761 jobs </s> 3.4843
-99.9990 jobs can 0.3838
-99.9990 jobs you 0.0032
-99.9990 juice </s> 4.0864
-0.1249 juice to 0.3360
-99.9990 jump everywhere 0.0000
-99.9990 june two 0.0000
-1.1303 just asked 0.0969
-1.2553 just bring -0.4725
-0.5863 just follow 0.0300
-0.3522 just go -0.3390
-99.9990 just need 0.0000
-99.9990 just needs 0.1945
-99.9990 just report 1.4624
-99.9990 just tell 0.0000
-99.9990 just walk 0.7887
-99.9990 just want 0.2118
-99.9990 just wants 0.0097
-99.9990 just you 0.0011
-99.9990 just yourself 0.5051
-99.9990 k nine 0.0000
-99.9990 keep dana 0.3436
-99.9990 keep it 0.0201
-99.9990 keep peter 0.3429
-99.9990 keep ray 0.3436
-0.3010 keep rolling 0.0969
-0.6368 kept </s> 3.6093
-0.1597 kept in -0.4753
-0.2632 kitchen </s> 3.3082
-0.4393 kitchen fill -0.1249
-0.0792 knock on -0.4973
-99.9990 know </s> 4.0864
-99.9990 know all 0.4150
-0.8653 know dana -0.6627
-99.9990 know dana's 0.2606
-99.9990 know he 0.0162
-1.0414 know how -0.1871
-0.8653 know peter -0.6629
-99.9990 know peter's 0.2606
-0.8653 know ray -0.6627
-99.9990 know ray's 0.2606
-1.1663 know supervisor -0.1872
-99.9990 know three 0.1792
-0.6892 know what -0.8472
-99.9990 know when 0.3010
-99.9990 know where 0.0000
-99.9990 know your 0.0000
-0.4901 l i -1.0246
-0.2762 l o -1.1044
-0.9294 l t -0.5684
-0.5325 lab </s> 2.3962
-1.9217 lab and 0.0038
-99.9990 lab by 0.0000
-99.9990 lab dana 0.3436
-99.9990 lab go 0.0004
-99.9990 lab is 0.0693
-1.6207 lab or -0.4674
-99.9990 lab peter 0.3429
-99.9990 lab please 0.0709
-99.9990 lab ray 0.3436
-1.6207 lab room -0.0316
-0.5151 lab secretary -0.3221
-0.5695 lab supervisor -1.1530
-99.9990 lab three 0.2262
-1.7456 lab where 0.1249
-99.9990 lab which 0.3010
-99.9990 labeled on 0.0000
-0.1249 labs </s> 3.6093
-99.9990 language do 0.2034
-99.9990 laptop </s> 4.0864
-99.9990 leave room 0.0514
-99.9990 leaving or 0.0000
-0.1249 ledger </s> 3.6093
-99.9990 left </s> 4.0864
-0.1249 let you -0.4651
-0.0580 letter to -0.5091
-99.9990 life high 0.0000
-99.9990 like a 0.0857
-99.9990 like bring 0.0038
-0.8361 like coffee -0.8314
-1.0792 like his -0.5843
-1.0792 like some -0.4022
-0.5351 like the -0.6885
-0.8361 like to -0.8433
-0.6812 like you -0.9163
-99.9990 lines of 0.0000
-0.0969 list and -0.4775
-99.9990 list items 0.2004
-99.9990 listen to 0.0012
-0.0969 little robot -0.5923
-99.9990 load item 0.0008
-0.0792 loaves of -0.6883
-99.9990 locate a 0.0066
-99.9990 locate item 0.2482
-99.9990 located </s> 4.0864
-0.0969 located in -0.5256
-0.0378 location </s> 3.0450
-99.9990 location to 0.0237
-0.0969 longtime city 0.0969
-0.4771 look for -0.4509
-0.2553 look inside 0.0792
-99.9990 lose it 0.0201
-0.0792 lost </s> 3.3874
-0.0580 lunch </s> 3.2413
-0.0969 lunchroom and -0.5859
-0.1761 m b -0.4844
-99.9990 m feeling 0.0367
-99.9990 m turk 0.0000
-0.0969 machine </s> 3.4843
-99.9990 main hall 0.1919
-0.3716 make a -1.1300
-1.1249 make dana -0.1214
-99.9990 make good 0.0000
-0.9031 make her -0.6888
-1.1249 make me -0.3780
-99.9990 make more 0.0000
-1.1249 make peter -0.1222
-99.9990 make phone 0.0000
-1.1249 make ray -0.1214
-99.9990 make ready 0.0000
-99.9990 make the 0.0063
-99.9990 make your 0.0000
-99.9990 making a 0.0857
-99.9990 many offers 0.0000
-99.9990 marked </s> 4.0864
-99.9990 marked with 0.0241
-99.9990 marry </s> 4.0864
-0.1249 material </s> 3.6093
-0.1249 may i -0.4749
-99.9990 may walk 0.7887
-99.9990 md in 0.0029
-0.5599 me </s> 2.6550
-0.7871 me a -0.0518
-99.9990 me by 0.0000
-99.9990 me carefully 0.0000
-99.9990 me carry 0.0483
-99.9990 me code 0.6990
-1.3892 me coffee -0.3906
-99.9990 me crazy 0.0000
-99.9990 me email 0.0000
-1.5141 me food -0.2188
-1.3892 me for 0.2460
-99.9990 me he 0.0217
-99.9990 me in 0.0000
-1.6902 me item 0.0715
-0.9120 me just -0.9488
-99.9990 me mobile 0.2632
-99.9990 me my 0.0330
-1.6902 me number 0.0630
-99.9990 me plans 0.7782
-99.9990 me please 0.0709
-99.9990 me some 0.0996
-99.9990 me something 0.4771
-99.9990 me that 0.0273
-1.3892 me the 0.1382
-1.2131 me to -0.7576
-99.9990 me with 0.0241
-1.6902 me your 0.0258
-99.9990 mean </s> 4.0864
-0.0969 medical assistance 0.0512
-0.0969 medium drink -0.5382
-1.1139 meet </s> 3.3874
-99.9990 meet bob 0.2420
-0.6368 meet dana -0.5659
-1.3358 meet dr 0.8999
-99.9990 meet eve 0.3439
-99.9990 meet her 0.1117
-1.3358 meet mr 0.1871
-0.6368 meet peter -0.5678
-0.6368 meet ray -0.5659
-99.9990 meet rob 0.0000
-1.5119 meet to 0.0247
-1.3358 meet with 0.0367
-0.6435 meeting </s> 3.3874
-0.1383 meeting room -0.4004
-99.9990 mentioned above 0.0000
-0.0969 merciful demise 0.0969
-0.5441 met dana's 0.2803
-0.5441 met peter's 0.2803
-0.5441 met ray's 0.2803
-0.1249 metal </s> 3.6093
-99.9990 metal arse 0.0000
-99.9990 microphones </s> 4.0864
-99.9990 military robot 0.0000
-0.5229 milk </s> 3.6093
-0.5229 milk for 0.2460
-0.5229 milk to 0.3360
-99.9990 mind report 1.4624
-99.9990 miss ballard 0.0085
-99.9990 miss mooney 0.0085
-99.9990 miss stone 0.0085
-99.9990 mistyped dana 0.0201
-99.9990 mistyped peter 0.0201
-99.9990 mistyped ray 0.0201
-0.5063 mobile </s> 2.7062
-1.1875 mobile and -0.6868
-1.4094 mobile for 0.2460
-0.3424 mobile phone -0.4325
-99.9990 mobile three 0.0361
-0.9322 mobile to -0.0789
-0.1249 money </s> 3.6093
-99.9990 money from 0.0000
-99.9990 monster though 0.0000
-0.2246 mooney </s> 1.1673
-1.5102 mooney a -0.4996
-2.0645 mooney and -0.0778
-2.4447 mooney at 0.1461
-99.9990 mooney awake 0.6990
-99.9990 mooney bob 0.0444
-99.9990 mooney books 0.7782
-99.9990 mooney but 0.1249
-99.9990 mooney calendar 0.3593
-99.9990 mooney calls 0.6990
-99.9990 mooney cardboard 0.2374
-2.3655 mooney coffee -0.1369
-2.3655 mooney director -0.4191
-99.9990 mooney do 0.0144
-99.9990 mooney feel 0.9542
-2.6665 mooney food -0.2188
-99.9990 mooney from 0.0090
-2.5416 mooney he -0.5012
-99.9990 mooney her 0.0081
-99.9990 mooney id 0.6990
-99.9990 mooney if 0.2478
-1.7819 mooney in -1.2397
-1.7123 mooney is -0.4218
-1.9975 mooney item 0.0661
-2.1022 mooney lab -0.6699
-2.6665 mooney location 0.6021
-2.4447 mooney need -0.0261
-1.2924 mooney needs -0.0586
-2.8426 mooney number 0.3768
-1.8426 mooney office -0.2358
-2.6665 mooney on -0.4029
-2.6665 mooney p 0.9031
-1.4447 mooney phd 0.8963
-2.4447 mooney please -0.5721
-99.9990 mooney ray 0.3436
-99.9990 mooney requests 0.3802
-2.2985 mooney room -0.0414
-1.4194 mooney s -0.5470
-2.8426 mooney sandwich 0.3445
-1.9395 mooney secretary -0.4033
-99.9990 mooney see 0.0489
-2.6665 mooney slot -0.2240
-2.2405 mooney some -0.5327
-2.6665 mooney something 0.0000
-2.1022 mooney supervisor -0.1538
-1.5526 mooney the -0.5117
-2.4447 mooney three -0.4102
-2.2405 mooney to -0.0342
-99.9990 mooney two 0.4112
-99.9990 mooney tylenol 0.6990
-2.1894 mooney want 0.1484
-1.4276 mooney wants 0.5267
-2.3655 mooney with 0.1191
-99.9990 mooney works 0.1627
-2.4447 mooney would 0.0792
-99.9990 mooney's </s> 4.0864
-0.6368 mooney's at -0.0378
-99.9990 mooney's coffee 0.2114
-99.9990 mooney's he 0.2906
-99.9990 mooney's needs 0.0602
-99.9990 mooney's office 0.3848
-0.5119 mooney's s -0.0268
-99.9990 mooney's wants 0.3010
-99.9990 more money 0.0000
-0.0969 more than 0.0969
-99.9990 moron </s> 4.0864
-99.9990 mother fucker 0.0000
-99.9990 mother name 0.2467
-99.9990 motherfucking dana 0.0980
-99.9990 motherfucking peter 0.0978
-99.9990 motherfucking ray 0.0980
-0.9379 move </s> 3.6093
-99.9990 move forward 0.6021
-0.7160 move item -0.0462
-0.8129 move the -0.5914
-99.9990 move these 0.0000
-0.3358 move to -0.3979
-0.9331 mr ballard -0.1120
-1.3802 mr ballard's -0.3632
-0.7782 mr dana -0.5568
-99.9990 mr dana's 0.0330
-0.9331 mr mooney -0.1120
-1.3802 mr mooney's -0.3632
-0.7782 mr peter -0.5579
-99.9990 mr peter's 0.0330
-0.7782 mr ray -0.5568
-99.9990 mr ray's 0.0330
-0.9331 mr stone -0.1120
-1.3802 mr stone's -0.3632
-99.9990 ms ballard 0.3939
-99.9990 ms dana 0.0201
-99.9990 ms mooney 0.3939
-99.9990 ms peter 0.0201
-99.9990 ms ray 0.0201
-99.9990 ms stone 0.3939
-99.9990 much </s> 4.0864
-99.9990 must bring 0.0567
-0.0458 must go -0.0560
-99.9990 my assignment 0.0000
-99.9990 my cell 2.1335
-99.9990 my cock 0.0000
-99.9990 my friend 0.0000
-99.9990 my head 0.0000
-99.9990 my laptop 0.0000
-99.9990 my lunch 0.9031
-99.9990 my m 0.0000
-99.9990 my mind 0.0000
-1.1357 my mobile -0.3149
-0.4667 my office -0.1074
-1.3118 my question 0.0544
-99.9990 my resume 0.0000
-99.9990 my room 0.0260
-0.6128 my two -0.9550
-99.9990 my work 0.2688
-99.9990 n </s> 4.0864
-1.0314 n c 0.0792
-99.9990 n f 0.0000
-1.0314 n five -0.5807
-0.1711 n o -0.8068
-1.0314 n u -0.5616
-0.3632 name </s> 2.9725
-99.9990 name a 0.0009
-0.8751 name first -0.4058
-0.6320 name is -0.8080
-99.9990 name items 0.0000
-0.8751 name of -0.5823
-0.5643 navigate a -0.4749
-99.9990 navigate the 0.0005
-0.1963 navigate to 0.2517
-99.9990 navigating them 0.1963
-99.9990 navigating you 0.0902
-99.9990 navigation to 0.0438
-99.9990 near food 0.2583
-99.9990 near the 0.0000
-99.9990 nearest window 0.0000
-0.0969 necessary products 0.1761
-1.0737 need a -0.1402
-99.9990 need address 0.7782
-99.9990 need another 0.0000
-99.9990 need blue 0.0565
-99.9990 need books 0.7782
-1.8976 need coffee -0.2657
-99.9990 need dana 0.3436
-99.9990 need diary 0.1375
-1.8976 need directory 0.1761
-1.8976 need dust 0.4771
-99.9990 need flight 0.0000
-1.5297 need food -0.5868
-99.9990 need hamburger 0.2384
-1.5297 need help -0.6664
-99.9990 need his 0.0132
-99.9990 need information 0.0000
-1.8976 need item 0.3437
-99.9990 need make 0.2403
-99.9990 need my 0.1814
-99.9990 need note 0.0000
-1.3747 need of -0.9652
-1.8976 need one 0.0007
-99.9990 need paper 0.0000
-99.9990 need peter 0.3429
-99.9990 need plastic 0.2553
-99.9990 need product 0.0000
-99.9990 need ray 0.3436
-1.7727 need robot -0.4706
-2.0737 need room 0.8037
-99.9990 need security 0.4771
-99.9990 need sex 0.0000
-99.9990 need slot 0.1478
-1.8976 need some 0.1179
-99.9990 need something 0.4771
-99.9990 need the 0.0081
-0.5754 need to -0.5184
-99.9990 need u 0.0969
-1.8976 need waste -0.3158
-1.7727 need water -0.3632
-0.5487 need you -1.5921
-1.4717 need your -0.5850
-0.6990 needed </s> 3.6093
-0.5740 needed by -0.4638
-0.6990 needed in -0.4007
-0.5740 needed to -0.6018
-99.9990 needing to 0.0002
-1.8084 needs </s> 3.1322
-1.0303 needs a -1.0232
-1.9176 needs an -0.3892
-99.9990 needs anything 0.1761
-2.1606 needs ask -0.4909
-2.1606 needs cellphone -0.5721
-1.4616 needs coffee -0.9893
-99.9990 needs done 0.6990
-1.6835 needs food -0.8051
-2.0637 needs four -0.5546
-99.9990 needs from 0.0136
-99.9990 needs go 0.8982
-1.7627 needs help -0.8213
-2.1606 needs it -0.5820
-1.3003 needs item -0.9737
-2.1606 needs medical 0.0969
-99.9990 needs mobile 0.1622
-2.0637 needs robot -0.5675
-2.1606 needs sandwich -0.3921
-2.1606 needs she -0.5809
-1.6487 needs some -0.7088
-1.9176 needs something -0.7791
-0.8333 needs the -1.6653
-2.2856 needs three -0.4410
-2.1606 needs to -0.6002
-2.2856 needs u -0.3802
-0.4425 needs you -2.0023
-0.8876 needs your -1.4301
-99.9990 negative </s> 4.0864
-99.9990 net banking 0.0000
-99.9990 new robot 0.1314
-99.9990 new vegas 0.0000
-0.1249 next to 0.3360
-99.9990 nine </s> 4.0864
-99.9990 nine nine 0.0000
-99.9990 nine t 0.0779
-99.9990 nine two 0.0000
-99.9990 nine v 0.0000
-0.4171 no </s> 1.6919
-99.9990 no about 0.2430
-2.1126 no action 0.0792
-99.9990 no are 0.3372
-99.9990 no asking 0.1249
-1.5328 no bring -0.9890
-99.9990 no burger 0.0116
-99.9990 no but 0.0580
-99.9990 no coffee 0.2114
-2.2095 no dana -0.2585
-2.5105 no do 0.0144
-1.6075 no five -1.0100
-1.5105 no four -1.0842
-99.9990 no fuck 0.0000
-2.1126 no get -0.5281
-1.7324 no give -0.5378
-1.6976 no go -0.2157
-99.9990 no hamburger 0.2384
-99.9990 no he 0.2906
-2.5105 no help 0.1584
-1.1681 no i -1.4029
-1.8116 no i'm -0.2798
-2.3345 no is -0.4699
-2.5105 no it 0.0129
-2.2095 no item -0.5819
-99.9990 no its 0.0000
-2.5105 no just 0.2553
-99.9990 no listen 0.0000
-99.9990 no make 0.0339
-99.9990 no money 0.6021
-99.9990 no need 0.1342
-1.9665 no not 0.1530
-1.8573 no one -0.9107
-2.2095 no peter -0.2592
-99.9990 no pick 0.0295
-2.2095 no place -0.2430
-2.2095 no please -0.5074
-99.9990 no put 0.3010
-2.2095 no ray -0.2585
-99.9990 no sandwich 0.2099
-2.2095 no send -0.4650
-99.9990 no somebody 0.0000
-1.5328 no take -0.9960
-99.9990 no thanks 0.6021
-0.8293 no three -0.5602
-1.5328 no to -0.7294
-1.5105 no two -0.6567
-99.9990 no unless 0.0000
-99.9990 no visit 0.1549
-1.6654 no walk -0.3574
-99.9990 no where 0.0000
-1.7702 no you -0.5976
-99.9990 nobody put 0.3010
-99.9990 none </s> 4.0864
-99.9990 nope </s> 4.0864
-99.9990 normal floor 0.0000
-1.3291 not </s> 3.6093
-1.5051 not a 0.0239
-99.9990 not able 0.0000
-0.9611 not asking -0.0669
-99.9990 not at 0.0000
-1.1072 not bring -0.6930
-1.3291 not dana 0.3908
-99.9990 not get 0.0038
-1.5051 not hamburger 0.2515
-1.2041 not have -0.2207
-99.9990 not in 0.4789
-99.9990 not me 0.0000
-1.2041 not need -0.4679
-1.3291 not peter 0.3899
-1.3291 not ray 0.3908
-99.9990 not really 0.0000
-99.9990 not sure 0.0000
-1.2041 not take -0.5967
-0.9031 not the -0.8951
-1.1072 not to -0.6978
-99.9990 not understand 0.0000
-99.9990 not want 0.0000
-99.9990 not what 0.0263
-99.9990 not worry 0.0000
-99.9990 note </s> 4.0864
-0.3010 note book -0.3089
-0.4260 note pad 0.1249
-0.4771 notebook </s> 3.3082
-0.4102 notebook to -0.5091
-0.6532 notebook with -0.5556
-0.1249 notepad to 0.3360
-0.0997 nothing </s> 2.5950
-1.1139 nothing just -0.2218
-0.9890 nothing more 0.0969
-99.9990 nothing you 0.0172
-99.9990 nova who 0.0000
-0.0414 now </s> 2.7854
-99.9990 now just 0.2553
-99.9990 now please 0.0000
-0.8539 number five -1.2472
-99.9990 number for 0.0039
-0.6108 number four -1.4499
-99.9990 number go 0.8982
-1.8239 number of 0.0746
-1.0969 number one -1.1175
-0.3565 number three -1.0336
-1.8239 number to 0.3360
-1.2596 number two -0.5635
-99.9990 nuts </s> 4.0864
-0.7877 o b -0.6605
-1.6628 o dana 0.5997
-1.2648 o f -0.5362
-1.3617 o five -0.6007
-99.9990 o four 0.1443
-99.9990 o go 0.8982
-99.9990 o n 0.0000
-99.9990 o one 0.0000
-1.6628 o peter 0.5979
-1.6628 o ray 0.5997
-0.5324 o t -0.4012
-0.5658 o three -0.8062
-1.3617 o u -0.5286
-1.6628 o w 0.0000
-99.9990 object </s> 4.0864
-99.9990 object at 0.0000
-99.9990 objects has 0.1513
-99.9990 obtain item 0.2482
-99.9990 obtain sandwich 0.2099
-99.9990 obtain slot 0.0453
-0.3010 obtain the -0.3491
-0.0969 occupy the -0.5957
